{"learner":{"attributes":{},"feature_names":[],"feature_types":[],"gradient_booster":{"model":{"cats":{"enc":[],"feature_segments":[],"sorted_idx":[]},"gbtree_model_param":{"num_parallel_tree":"1","num_trees":"50"},"iteration_indptr":[0,1,2,3,4,5,6,7,8,9,10,11,12,13,14,15,16,17,18,19,20,21,22,23,24,25,26,27,28,29,30,31,32,33,34,35,36,37,38,39,40,41,42,43,44,45,46,47,48,49,50],"tree_info":[0,0,0,0,0,0,0,0,0,0,0,0,0,0,0,0,0,0,0,0,0,0,0,0,0,0,0,0,0,0,0,0,0,0,0,0,0,0,0,0,0,0,0,0,0,0,0,0,0,0],"trees":[{"base_weights":[5.0316807E-8,-1.0167493E0,8.302276E-1,-1.1556957E0,-5.9220415E-1,5.8005918E-2,1.4592406E0,-1.2341177E0,-8.476087E-1,-9.389838E-1,-2.623297E-1,8.436814E-1,-3.411059E-1,2.2655454E0,8.003559E-1,-3.7756002E-1,-9.623732E-1,-1.1606462E0,-6.7324644E-1,-7.532873E-1,-3.638176E-1,-6.497639E-1,-1.18318E-1,1.6927315E-1,1.4465765E0,-5.661968E-1,1.5213153E-1,2.9376574E0,2.0165687E0,3.5252246E-1,1.1578209E0,-3.086949E-1,-1.0594221E0,-5.658875E-1,-1.2550702E0,-8.0363244E-1,-4.640723E-2,-1.044787E0,-4.1104424E-1,4.386833E-1,-8.651875E-1,-4.694688E-1,1.8604447E-1,5.846372E-1,-3.581415E-1,1.5417103E0,1.1335098E-1,-7.53853E-1,-2.8192216E-1,-4.5891088E-1,5.9376353E-1,1.0281288E-1,3.0386598E0,1.2721161E0,2.3044918E0,5.3567785E-1,-3.979336E-1,1.3077744E0,1.3720433E-1,6.663587E-2,-1.9623078E-1,-3.5096845E-1,-2.0276399E-1,-2.9281545E-1,3.5241093E-2,-3.8898662E-1,-8.187319E-2,-7.089914E-2,-2.6857156E-1,1.3902363E-1,-1.6976626E-1,-5.1654603E-2,-3.656751E-1,1.0406746E-1,-2.7339253E-1,-8.187319E-2,2.7182698E-1,-3.1453282E-1,-9.2608474E-2,1.4495488E-1,-1.6575809E-1,-3.4839846E-2,2.1670674E-1,-5.1654603E-2,2.1420158E-1,-2.4909629E-1,1.712626E-1,5.816966E-1,2.928991E-1,-1.3160545E-1,1.7554983E-1,-8.380797E-2,-2.4335697E-1,1.6705598E-1,-1.5061119E-1,3.738146E-2,-2.2323026E-1,3.795541E-1,-1.4091878E-1,9.297332E-1,1.9466974E-1,5.379875E-1,2.868002E-1,3.942818E-1,7.317735E-1,3.0415544E-1,4.494791E-2,-2.0125613E-1,6.9779426E-2,4.6098426E-1,2.1073416E-1,-1.5818095E-1,2.3510747E-1],"categories":[],"categories_nodes":[],"categories_segments":[],"categories_sizes":[],"default_left":[0,0,0,0,0,0,0,0,0,0,0,0,0,0,0,0,0,0,0,0,0,0,0,0,0,0,0,0,0,0,0,0,0,0,0,0,0,0,0,0,0,0,0,0,0,0,0,0,0,0,0,0,0,0,0,0,0,0,0,0,0,0,0,0,0,0,0,0,0,0,0,0,0,0,0,0,0,0,0,0,0,0,0,0,0,0,0,0,0,0,0,0,0,0,0,0,0,0,0,0,0,0,0,0,0,0,0,0,0,0,0,0,0],"id":0,"left_children":[1,3,5,7,9,11,13,15,17,19,21,23,25,27,29,-1,31,33,35,37,-1,39,41,43,45,47,49,51,53,55,57,59,61,63,65,67,69,71,73,75,77,79,81,83,85,87,89,91,93,95,97,-1,99,101,103,105,107,109,111,-1,-1,-1,-1,-1,-1,-1,-1,-1,-1,-1,-1,-1,-1,-1,-1,-1,-1,-1,-1,-1,-1,-1,-1,-1,-1,-1,-1,-1,-1,-1,-1,-1,-1,-1,-1,-1,-1,-1,-1,-1,-1,-1,-1,-1,-1,-1,-1,-1,-1,-1,-1,-1,-1],"loss_changes":[9.2879724E2,2.8490997E1,2.9412976E2,7.9317017E0,1.3939384E1,8.587502E1,1.7550287E2,7.394104E-1,3.5080032E0,2.1398468E0,3.5464854E0,3.725656E1,2.0260195E1,1.9100952E1,2.92426E1,0E0,1.4801216E0,7.910385E-1,4.2825413E0,3.404333E0,0E0,4.4535947E0,5.2778907E0,9.994489E0,5.9850388E0,6.454769E0,1.5850672E1,8.979523E0,2.1141785E1,1.1711542E1,1.5517517E1,1.079216E0,2.4284172E-1,1.6516594E0,5.541115E-1,2.0590305E0,2.953613E0,2.8448906E0,7.6433372E0,1.42278E0,1.1898193E0,2.0736737E0,4.4161377E0,2.606635E0,9.378487E0,8.271011E0,1.3803214E0,1.8053398E0,9.749962E0,4.2168913E0,2.4832615E1,0E0,3.2870483E0,3.8138695E0,7.436432E0,1.2333445E1,3.0789254E0,1.129184E1,6.5372157E0,0E0,0E0,0E0,0E0,0E0,0E0,0E0,0E0,0E0,0E0,0E0,0E0,0E0,0E0,0E0,0E0,0E0,0E0,0E0,0E0,0E0,0E0,0E0,0E0,0E0,0E0,0E0,0E0,0E0,0E0,0E0,0E0,0E0,0E0,0E0,0E0,0E0,0E0,0E0,0E0,0E0,0E0,0E0,0E0,0E0,0E0,0E0,0E0,0E0,0E0,0E0,0E0,0E0,0E0],"parents":[2147483647,0,0,1,1,2,2,3,3,4,4,5,5,6,6,7,7,8,8,9,9,10,10,11,11,12,12,13,13,14,14,16,16,17,17,18,18,19,19,21,21,22,22,23,23,24,24,25,25,26,26,27,27,28,28,29,29,30,30,31,31,32,32,33,33,34,34,35,35,36,36,37,37,38,38,39,39,40,40,41,41,42,42,43,43,44,44,45,45,46,46,47,47,48,48,49,49,50,50,52,52,53,53,54,54,55,55,56,56,57,57,58,58],"right_children":[2,4,6,8,10,12,14,16,18,20,22,24,26,28,30,-1,32,34,36,38,-1,40,42,44,46,48,50,52,54,56,58,60,62,64,66,68,70,72,74,76,78,80,82,84,86,88,90,92,94,96,98,-1,100,102,104,106,108,110,112,-1,-1,-1,-1,-1,-1,-1,-1,-1,-1,-1,-1,-1,-1,-1,-1,-1,-1,-1,-1,-1,-1,-1,-1,-1,-1,-1,-1,-1,-1,-1,-1,-1,-1,-1,-1,-1,-1,-1,-1,-1,-1,-1,-1,-1,-1,-1,-1,-1,-1,-1,-1,-1,-1],"split_conditions":[1E0,9.34E1,1E0,1E0,1E0,4E0,1.4E1,1E0,1E0,7.2E1,1E0,1E0,1E0,2E0,1E0,-3.7756002E-1,1E0,5.45E1,1E0,1.0355548E2,-3.638176E-1,4.2E1,1.033E2,1.114E1,5.65E1,1E0,1E0,1E0,7.81E1,5.2E1,5.6E1,5.2788887E1,1E0,4.81E1,1E0,1.1988E3,1E0,9.4472725E1,1.1E2,1E0,1E0,9.0413414E1,1E0,9.725E0,1E0,1E0,6.14E1,1E0,3.2975E2,1E0,8.9355E2,1.0281288E-1,1E0,1E0,1E0,1E0,9.873358E1,1E0,9.836759E1,6.663587E-2,-1.9623078E-1,-3.5096845E-1,-2.0276399E-1,-2.9281545E-1,3.5241093E-2,-3.8898662E-1,-8.187319E-2,-7.089914E-2,-2.6857156E-1,1.3902363E-1,-1.6976626E-1,-5.1654603E-2,-3.656751E-1,1.0406746E-1,-2.7339253E-1,-8.187319E-2,2.7182698E-1,-3.1453282E-1,-9.2608474E-2,1.4495488E-1,-1.6575809E-1,-3.4839846E-2,2.1670674E-1,-5.1654603E-2,2.1420158E-1,-2.4909629E-1,1.712626E-1,5.816966E-1,2.928991E-1,-1.3160545E-1,1.7554983E-1,-8.380797E-2,-2.4335697E-1,1.6705598E-1,-1.5061119E-1,3.738146E-2,-2.2323026E-1,3.795541E-1,-1.4091878E-1,9.297332E-1,1.9466974E-1,5.379875E-1,2.868002E-1,3.942818E-1,7.317735E-1,3.0415544E-1,4.494791E-2,-2.0125613E-1,6.9779426E-2,4.6098426E-1,2.1073416E-1,-1.5818095E-1,2.3510747E-1],"split_indices":[1,16,14,23,2,46,46,32,2,46,4,43,32,46,32,0,12,16,33,0,0,46,16,0,16,23,20,43,16,46,46,0,20,0,36,53,37,0,16,23,20,0,32,0,37,26,16,12,53,12,53,0,31,17,23,37,0,17,0,0,0,0,0,0,0,0,0,0,0,0,0,0,0,0,0,0,0,0,0,0,0,0,0,0,0,0,0,0,0,0,0,0,0,0,0,0,0,0,0,0,0,0,0,0,0,0,0,0,0,0,0,0,0],"split_type":[0,0,0,0,0,0,0,0,0,0,0,0,0,0,0,0,0,0,0,0,0,0,0,0,0,0,0,0,0,0,0,0,0,0,0,0,0,0,0,0,0,0,0,0,0,0,0,0,0,0,0,0,0,0,0,0,0,0,0,0,0,0,0,0,0,0,0,0,0,0,0,0,0,0,0,0,0,0,0,0,0,0,0,0,0,0,0,0,0,0,0,0,0,0,0,0,0,0,0,0,0,0,0,0,0,0,0,0,0,0,0,0,0],"sum_hessian":[1.0982969E3,4.935903E2,6.047066E2,3.705826E2,1.230077E2,2.7194254E2,3.3276407E2,2.9299615E2,7.758647E1,5.9067085E1,6.394061E1,9.123233E1,1.8071019E2,1.4854495E2,1.8421913E2,2.655095E2,2.7486664E1,2.5732197E1,5.1854275E1,3.742865E1,2.1638437E1,1.6375034E1,4.7565575E1,4.3666756E1,4.7565575E1,1.239824E2,5.6727795E1,3.7233707E1,1.1131124E2,8.265493E1,1.015642E2,4.0937586E0,2.3392906E1,4.48364E0,2.1248556E1,4.269205E1,9.162221E0,1.9104206E1,1.8324442E1,2.5342314E0,1.3840802E1,2.1833378E1,2.5732197E1,2.436761E1,1.9299147E1,4.425158E1,3.313995E0,7.368765E1,5.0294746E1,2.3782787E1,3.2945007E1,1.559527E0,3.5674183E1,3.2555126E1,7.875612E1,6.6669785E1,1.5985152E1,8.830822E1,1.325598E1,1.754468E0,2.3392906E0,1.6569975E1,6.822931E0,2.5342314E0,1.9494088E0,2.007891E1,1.1696453E0,6.433049E0,3.6259003E1,4.678581E0,4.48364E0,3.508936E0,1.559527E1,7.4077535E0,1.0916689E1,1.1696453E0,1.3645861E0,9.747044E0,4.0937586E0,1.3645861E0,2.0468792E1,1.6959856E1,8.77234E0,3.508936E0,2.0858675E1,1.2866098E1,6.433049E0,2.4562551E1,1.968903E1,1.559527E0,1.754468E0,8.577398E0,6.511025E1,1.0136926E1,4.015782E1,7.992576E0,1.5790212E1,2.007891E1,1.2866098E1,3.4504536E1,1.1696453E0,1.0526808E1,2.202832E1,1.0721748E1,6.803437E1,2.904619E1,3.762359E1,1.111163E1,4.873522E0,6.2965904E1,2.5342314E1,6.62799E0,6.62799E0],"tree_param":{"num_deleted":"0","num_feature":"54","num_nodes":"113","size_leaf_vector":"1"}},{"base_weights":[-3.1831477E-2,-8.715727E-1,5.0803906E-1,-1.0131991E0,-4.778783E-1,2.6159579E-2,8.469603E-1,-1.0964245E0,-7.0899963E-1,-8.0045724E-1,-2.0004423E-1,4.419335E-1,-3.2803443E-1,1.1930494E0,4.2195964E-1,-3.5009408E-1,-9.732855E-1,-1.030367E0,-5.4271084E-1,-6.3017017E-1,-3.3769315E-1,-1.2014811E-1,-8.258899E-1,1.0648044E-2,8.040598E-1,1.2905805E-1,-4.866627E-1,1.3220562E0,6.8887407E-1,6.1350113E-1,1.23885155E-1,-1.0488263E0,-2.416453E-1,-4.8156327E-1,-1.1281536E0,-6.593967E-1,-4.0874284E-2,-9.13464E-1,-1.3615608E-1,5.9314623E-2,-3.541527E-1,-3.2422805E-1,8.583139E-2,3.7851983E-1,-3.0189523E-1,6.616371E-1,4.8018983E-1,-4.1460052E-1,3.0334583E-1,-2.9481083E-1,-8.4069073E-1,1.5536828E0,1.1206721E0,1.311344E0,3.5594812E-1,7.2724754E-1,-3.494881E-1,4.1907766E-1,-3.602631E-1,-3.2068402E-1,-6.930555E-4,-2.4629405E-1,9.298034E-2,-2.6085958E-1,2.7892936E-2,-3.5181922E-1,-7.036558E-2,-2.1640417E-1,2.4847927E-2,-8.884071E-2,1.7310636E-1,4.251882E-2,-2.9445058E-1,6.341061E-2,-1.8240304E-1,-4.8873533E-2,1.4331877E-1,-1.741826E-1,5.900384E-2,2.2423407E-1,5.2611824E-2,-2.2261544E-1,5.3306885E-2,-1.8474977E-2,2.4170808E-1,-2.412336E-1,4.545441E-2,-3.1055795E-2,1.9885385E-1,-2.0981272E-1,-1.9979166E-2,-2.6556052E-2,-2.6788738E-1,-4.5851734E-2,4.7658074E-1,4.5338374E-1,2.8894424E-1,2.5079617E-1,4.9247837E-1,3.5931982E-2,3.2430533E-1,1.1772889E-1,2.820825E-1,2.5644539E-2,-2.5249317E-1,6.7350596E-2,2.8762925E-1,6.449651E-2,-2.3114972E-1],"categories":[],"categories_nodes":[],"categories_segments":[],"categories_sizes":[],"default_left":[0,0,0,0,0,0,0,0,0,0,0,0,0,0,0,0,0,0,0,0,0,0,0,0,0,0,0,0,0,0,0,0,0,0,0,0,0,0,0,0,0,0,0,0,0,0,0,0,0,0,0,0,0,0,0,0,0,0,0,0,0,0,0,0,0,0,0,0,0,0,0,0,0,0,0,0,0,0,0,0,0,0,0,0,0,0,0,0,0,0,0,0,0,0,0,0,0,0,0,0,0,0,0,0,0,0,0,0,0],"id":1,"left_children":[1,3,5,7,9,11,13,15,17,19,21,23,25,27,29,-1,31,33,35,37,-1,39,41,43,45,47,49,51,53,55,57,59,61,63,65,67,69,71,73,75,77,-1,-1,79,81,83,-1,85,87,89,91,93,95,97,99,101,103,105,107,-1,-1,-1,-1,-1,-1,-1,-1,-1,-1,-1,-1,-1,-1,-1,-1,-1,-1,-1,-1,-1,-1,-1,-1,-1,-1,-1,-1,-1,-1,-1,-1,-1,-1,-1,-1,-1,-1,-1,-1,-1,-1,-1,-1,-1,-1,-1,-1,-1,-1],"loss_changes":[4.8957883E2,2.3077667E1,1.0733675E2,7.068054E0,1.0029268E1,4.0269325E1,5.6256653E1,9.6224976E-1,3.1494637E0,2.1854439E0,3.0216923E0,1.963304E1,1.0772324E1,1.2887573E1,9.900963E0,0E0,4.941246E0,6.66975E-1,2.7748308E0,4.9952383E0,0E0,2.3945458E0,2.263548E0,6.830429E0,6.6951714E0,3.8062396E0,7.213867E0,6.087555E0,8.923321E0,1.1879498E1,1.0100223E1,1.7850876E0,3.4804578E0,1.2299964E0,4.577446E-1,1.8417149E0,1.7627201E0,1.79566E0,2.5074596E0,3.1317627E0,3.1921754E0,0E0,0E0,1.9131224E0,6.9159565E0,6.2680626E0,0E0,2.2942712E0,4.4553223E0,6.673784E0,1.4176445E0,4.7400055E0,4.2892303E0,1.0479031E0,5.1609273E0,6.424366E0,2.616673E0,4.3746724E0,6.5152025E0,0E0,0E0,0E0,0E0,0E0,0E0,0E0,0E0,0E0,0E0,0E0,0E0,0E0,0E0,0E0,0E0,0E0,0E0,0E0,0E0,0E0,0E0,0E0,0E0,0E0,0E0,0E0,0E0,0E0,0E0,0E0,0E0,0E0,0E0,0E0,0E0,0E0,0E0,0E0,0E0,0E0,0E0,0E0,0E0,0E0,0E0,0E0,0E0,0E0,0E0],"parents":[2147483647,0,0,1,1,2,2,3,3,4,4,5,5,6,6,7,7,8,8,9,9,10,10,11,11,12,12,13,13,14,14,16,16,17,17,18,18,19,19,21,21,22,22,23,23,24,24,25,25,26,26,27,27,28,28,29,29,30,30,31,31,32,32,33,33,34,34,35,35,36,36,37,37,38,38,39,39,40,40,43,43,44,44,45,45,47,47,48,48,49,49,50,50,51,51,52,52,53,53,54,54,55,55,56,56,57,57,58,58],"right_children":[2,4,6,8,10,12,14,16,18,20,22,24,26,28,30,-1,32,34,36,38,-1,40,42,44,46,48,50,52,54,56,58,60,62,64,66,68,70,72,74,76,78,-1,-1,80,82,84,-1,86,88,90,92,94,96,98,100,102,104,106,108,-1,-1,-1,-1,-1,-1,-1,-1,-1,-1,-1,-1,-1,-1,-1,-1,-1,-1,-1,-1,-1,-1,-1,-1,-1,-1,-1,-1,-1,-1,-1,-1,-1,-1,-1,-1,-1,-1,-1,-1,-1,-1,-1,-1,-1,-1,-1,-1,-1,-1],"split_conditions":[1E0,9.34E1,1E0,1E0,1E0,6E0,1.55395E3,1E0,1E0,7.7467E3,1E0,1E0,1E0,1E0,1E0,-3.5009408E-1,5E0,5.45E1,1E0,1.0392541E2,-3.3769315E-1,6E1,1E0,1.114E1,1E0,1E0,2.3E1,1E0,1.807E2,5E0,8.565E1,5.7334E3,1E0,4.81E1,1E0,5.0002E3,4.2E1,9.445E1,1.1E2,5.41165E3,1E0,-3.2422805E-1,8.583139E-2,1E0,1.8905882E1,1E0,4.8018983E-1,1E0,1E0,2.495E1,1.97E1,7.355E1,4.4575E1,7.57E1,8.107353E1,9.56E1,4.9E1,8.365E1,2.96695E3,-3.2068402E-1,-6.930555E-4,-2.4629405E-1,9.298034E-2,-2.6085958E-1,2.7892936E-2,-3.5181922E-1,-7.036558E-2,-2.1640417E-1,2.4847927E-2,-8.884071E-2,1.7310636E-1,4.251882E-2,-2.9445058E-1,6.341061E-2,-1.8240304E-1,-4.8873533E-2,1.4331877E-1,-1.741826E-1,5.900384E-2,2.2423407E-1,5.2611824E-2,-2.2261544E-1,5.3306885E-2,-1.8474977E-2,2.4170808E-1,-2.412336E-1,4.545441E-2,-3.1055795E-2,1.9885385E-1,-2.0981272E-1,-1.9979166E-2,-2.6556052E-2,-2.6788738E-1,-4.5851734E-2,4.7658074E-1,4.5338374E-1,2.8894424E-1,2.5079617E-1,4.9247837E-1,3.5931982E-2,3.2430533E-1,1.1772889E-1,2.820825E-1,2.5644539E-2,-2.5249317E-1,6.7350596E-2,2.8762925E-1,6.449651E-2,-2.3114972E-1],"split_indices":[1,16,14,23,2,46,53,2,2,53,37,43,12,26,40,0,52,16,33,0,0,46,32,0,36,4,46,17,53,52,16,53,26,0,36,53,46,16,16,53,28,0,0,26,0,23,0,26,32,0,16,16,0,16,0,16,46,16,53,0,0,0,0,0,0,0,0,0,0,0,0,0,0,0,0,0,0,0,0,0,0,0,0,0,0,0,0,0,0,0,0,0,0,0,0,0,0,0,0,0,0,0,0,0,0,0,0,0,0],"split_type":[0,0,0,0,0,0,0,0,0,0,0,0,0,0,0,0,0,0,0,0,0,0,0,0,0,0,0,0,0,0,0,0,0,0,0,0,0,0,0,0,0,0,0,0,0,0,0,0,0,0,0,0,0,0,0,0,0,0,0,0,0,0,0,0,0,0,0,0,0,0,0,0,0,0,0,0,0,0,0,0,0,0,0,0,0,0,0,0,0,0,0,0,0,0,0,0,0,0,0,0,0,0,0,0,0,0,0,0,0],"sum_hessian":[1.0779332E3,4.215771E2,6.5635614E2,3.0888586E2,1.1269123E2,2.7146432E2,3.848918E2,2.4048715E2,6.839872E1,5.1276104E1,6.1415127E1,1.24762726E2,1.467016E2,2.1114435E2,1.7374747E2,1.4749747E2,9.298969E1,2.1551792E1,4.684693E1,3.5581425E1,1.5694678E1,5.5519432E1,5.895692E0,5.741362E1,6.7349106E1,3.7842785E1,1.0885881E2,1.6683333E2,4.4311016E1,1.051319E2,6.861557E1,8.38942E1,9.09549E0,4.1553745E0,1.7396418E1,3.77544E1,9.092533E0,2.2073975E1,1.350745E1,3.1844095E1,2.3675339E1,4.8192124E0,1.0764794E0,2.6275528E1,3.1138092E1,5.8686836E1,8.662271E0,8.851946E0,2.8990839E1,7.178852E1,3.7070293E1,7.4467636E1,9.236569E1,1.4416923E1,2.9894093E1,9.42447E1,1.0887198E1,4.27094E1,2.5906166E1,8.229064E1,1.6035599E0,4.1979194E0,4.8975706E0,2.1739402E0,1.9814346E0,1.627231E1,1.124106E0,3.4871902E1,2.8824959E0,6.8028955E0,2.289638E0,1.2714881E0,2.0802486E1,8.096415E0,5.4110355E0,2.1196798E1,1.0647298E1,1.6739433E1,6.935905E0,8.379153E0,1.7896374E1,1.5951111E1,1.5186981E1,9.8431E0,4.884374E1,4.9948635E0,3.8570824E0,1.39335575E1,1.50572815E1,2.514617E1,4.6642353E1,2.5836031E0,3.448669E1,1.4255241E0,7.3042114E1,2.407473E1,6.829096E1,7.357722E0,7.0592003E0,2.342811E1,6.4659824E0,3.7751823E1,5.6492878E1,6.218004E0,4.6691937E0,3.2432384E1,1.0277016E1,1.0982269E1,1.4923897E1],"tree_param":{"num_deleted":"0","num_feature":"54","num_nodes":"109","size_leaf_vector":"1"}},{"base_weights":[-3.811151E-2,-7.522464E-1,3.488662E-1,-8.998221E-1,-3.8511798E-1,-1.0698649E-1,5.295744E-1,-1.0613005E0,-7.10389E-1,-2.2508255E-1,-8.696092E-1,-2.0828407E-1,3.556578E-1,8.0812037E-1,3.289339E-1,-3.244916E-1,-7.2023433E-1,-8.596443E-1,-3.462888E-1,-5.0423634E-1,-9.419814E-2,-3.0785006E-1,-4.8900968E-1,2.3397766E-1,-3.3109483E-1,1.4167142E0,-4.419005E-1,4.3959436E-1,1.0292516E0,4.5324144E-1,-9.499962E-2,-7.58276E-2,-2.7452874E-1,-9.542148E-1,-3.876489E-1,2.7202412E-2,-7.372455E-1,-8.0228335E-1,-1.879136E-1,-1.4907898E-1,7.6839817E-1,-9.25157E-3,-6.591036E-1,1.429478E-1,4.1479206E-1,-5.856353E-1,-1.6736569E-1,9.916132E-2,1.5296926E0,-3.1820968E-1,-2.0649639E-1,5.620897E-1,-4.3488288E-1,1.2966131E0,8.6694044E-1,5.530888E-1,-1.0567063E-2,3.2680419E-3,-9.464072E-1,-1.9507991E-1,1.2839887E-1,-2.953762E-1,-1.1122386E-1,-2.195339E-1,2.4699007E-1,1.0580981E-1,-1.1105502E-1,-3.7179068E-2,-2.3973824E-1,-2.7936932E-1,6.360727E-2,-1.2174052E-1,2.048216E-1,-2.358936E-2,-3.063891E-1,2.741881E-1,7.2088756E-2,-9.725521E-2,1.14296176E-1,-2.8006893E-1,-8.774733E-2,1.320119E-1,-1.1383449E-2,-1.9404402E-1,-5.9439216E-2,2.1811019E-1,-8.892766E-2,4.782061E-1,1.4243329E-1,2.4742918E-1,-1.3857108E-1,9.8777875E-2,2.3415194E-1,1.6529621E-1,-2.3475604E-1,4.1601592E-1,1.8273881E-1,4.5834136E-1,2.3230754E-1,3.1220358E-2,1.9330701E-1,8.279465E-2,-8.17531E-2,1.2618178E-1,-4.8099454E-2,-3.1473342E-1,-8.445552E-2],"categories":[],"categories_nodes":[],"categories_segments":[],"categories_sizes":[],"default_left":[0,0,0,0,0,0,0,0,0,0,0,0,0,0,0,0,0,0,0,0,0,0,0,0,0,0,0,0,0,0,0,0,0,0,0,0,0,0,0,0,0,0,0,0,0,0,0,0,0,0,0,0,0,0,0,0,0,0,0,0,0,0,0,0,0,0,0,0,0,0,0,0,0,0,0,0,0,0,0,0,0,0,0,0,0,0,0,0,0,0,0,0,0,0,0,0,0,0,0,0,0,0,0,0,0,0,0],"id":2,"left_children":[1,3,5,7,9,11,13,15,17,19,21,23,25,27,29,-1,31,33,35,37,39,-1,41,43,45,47,49,51,53,55,57,59,-1,61,63,65,67,69,71,73,75,77,79,81,-1,83,85,-1,87,-1,89,91,93,95,97,99,101,103,105,-1,-1,-1,-1,-1,-1,-1,-1,-1,-1,-1,-1,-1,-1,-1,-1,-1,-1,-1,-1,-1,-1,-1,-1,-1,-1,-1,-1,-1,-1,-1,-1,-1,-1,-1,-1,-1,-1,-1,-1,-1,-1,-1,-1,-1,-1,-1,-1],"loss_changes":[2.8313974E2,1.9160965E1,5.4799774E1,7.079132E0,7.9442015E0,8.954267E0,2.6340225E1,1.65802E-1,6.2703514E0,2.8851347E0,1.0306168E0,8.554874E0,2.9741854E1,1.5735748E1,1.4715118E1,0E0,1.2689552E0,3.4263E0,5.395608E0,2.2430692E0,2.7596328E0,0E0,7.614701E-1,3.4105766E0,5.0102673E0,1.3352985E0,2.7531514E0,8.411354E0,4.231186E0,9.983929E0,5.353917E0,1.3100684E0,0E0,8.7841415E-1,7.220091E0,2.690618E0,5.8496E-1,1.8673038E0,2.8615294E0,3.19902E0,4.9792767E-2,5.507298E-1,4.2422223E-1,1.794968E0,0E0,9.99815E-1,8.987371E0,0E0,1.46595E-1,0E0,4.601182E0,3.165987E0,3.8348825E0,1.9180908E0,3.6997871E0,7.1994667E0,3.013703E0,4.0502343E0,1.5679312E-1,0E0,0E0,0E0,0E0,0E0,0E0,0E0,0E0,0E0,0E0,0E0,0E0,0E0,0E0,0E0,0E0,0E0,0E0,0E0,0E0,0E0,0E0,0E0,0E0,0E0,0E0,0E0,0E0,0E0,0E0,0E0,0E0,0E0,0E0,0E0,0E0,0E0,0E0,0E0,0E0,0E0,0E0,0E0,0E0,0E0,0E0,0E0,0E0],"parents":[2147483647,0,0,1,1,2,2,3,3,4,4,5,5,6,6,7,7,8,8,9,9,10,10,11,11,12,12,13,13,14,14,16,16,17,17,18,18,19,19,20,20,22,22,23,23,24,24,25,25,26,26,27,27,28,28,29,29,30,30,31,31,33,33,34,34,35,35,36,36,37,37,38,38,39,39,40,40,41,41,42,42,43,43,45,45,46,46,48,48,50,50,51,51,52,52,53,53,54,54,55,55,56,56,57,57,58,58],"right_children":[2,4,6,8,10,12,14,16,18,20,22,24,26,28,30,-1,32,34,36,38,40,-1,42,44,46,48,50,52,54,56,58,60,-1,62,64,66,68,70,72,74,76,78,80,82,-1,84,86,-1,88,-1,90,92,94,96,98,100,102,104,106,-1,-1,-1,-1,-1,-1,-1,-1,-1,-1,-1,-1,-1,-1,-1,-1,-1,-1,-1,-1,-1,-1,-1,-1,-1,-1,-1,-1,-1,-1,-1,-1,-1,-1,-1,-1,-1,-1,-1,-1,-1,-1,-1,-1,-1,-1,-1,-1],"split_conditions":[1E0,9.34E1,1E0,1E0,7.1E1,9.155E1,8E0,1E0,1E0,1E0,1E0,2E0,2.8799E3,6.605E1,1E0,-3.244916E-1,1E0,1E0,1E0,1.0355548E2,7.41225E3,-3.0785006E-1,1.043E2,1E0,2.965E1,7.2275E1,4.0609E3,4.2725E1,1E0,1E0,6.67E1,1E0,-2.7452874E-1,4E0,8.205E1,1E0,1.16175E3,7E1,1E0,6E0,1.1105E2,1.0058083E2,1.065397E2,1E0,4.1479206E-1,1E0,3.8935345E1,9.916132E-2,1.0191829E2,-3.1820968E-1,4.6278E3,4.505E1,1E0,7.795227E1,3.4975E1,1E0,1E0,1E0,1E0,-1.9507991E-1,1.2839887E-1,-2.953762E-1,-1.1122386E-1,-2.195339E-1,2.4699007E-1,1.0580981E-1,-1.1105502E-1,-3.7179068E-2,-2.3973824E-1,-2.7936932E-1,6.360727E-2,-1.2174052E-1,2.048216E-1,-2.358936E-2,-3.063891E-1,2.741881E-1,7.2088756E-2,-9.725521E-2,1.14296176E-1,-2.8006893E-1,-8.774733E-2,1.320119E-1,-1.1383449E-2,-1.9404402E-1,-5.9439216E-2,2.1811019E-1,-8.892766E-2,4.782061E-1,1.4243329E-1,2.4742918E-1,-1.3857108E-1,9.8777875E-2,2.3415194E-1,1.6529621E-1,-2.3475604E-1,4.1601592E-1,1.8273881E-1,4.5834136E-1,2.3230754E-1,3.1220358E-2,1.9330701E-1,8.279465E-2,-8.17531E-2,1.2618178E-1,-4.8099454E-2,-3.1473342E-1,-8.445552E-2],"split_indices":[1,16,23,2,46,16,46,32,39,2,23,46,53,16,13,0,12,32,9,0,53,0,16,36,16,0,53,0,17,26,16,4,0,52,0,26,53,46,20,52,16,0,0,26,0,30,0,0,0,0,53,16,4,0,0,4,37,40,33,0,0,0,0,0,0,0,0,0,0,0,0,0,0,0,0,0,0,0,0,0,0,0,0,0,0,0,0,0,0,0,0,0,0,0,0,0,0,0,0,0,0,0,0,0,0,0,0],"split_type":[0,0,0,0,0,0,0,0,0,0,0,0,0,0,0,0,0,0,0,0,0,0,0,0,0,0,0,0,0,0,0,0,0,0,0,0,0,0,0,0,0,0,0,0,0,0,0,0,0,0,0,0,0,0,0,0,0,0,0,0,0,0,0,0,0,0,0,0,0,0,0,0,0,0,0,0,0,0,0,0,0,0,0,0,0,0,0,0,0,0,0,0,0,0,0,0,0,0,0,0,0,0,0,0,0,0,0],"sum_hessian":[1.0226039E3,3.590547E2,6.635492E2,2.5507175E2,1.0398295E2,1.8848549E2,4.750637E2,1.3521118E2,1.19860565E2,7.9264984E1,2.4717958E1,1.5507999E2,3.3405506E1,1.9764651E2,2.7741718E2,1.25553024E2,9.658156E0,8.404646E1,3.58141E1,2.4390894E1,5.4874092E1,1.6311943E1,8.406016E0,3.3507774E1,1.21572205E2,1.4001656E1,1.940385E1,7.5241234E1,1.2240528E2,2.1446248E2,6.2954704E1,2.5649621E0,7.093194E0,6.9166405E1,1.4880065E1,1.8792015E1,1.7022085E1,1.1767238E1,1.2623657E1,5.2369377E1,2.504716E0,2.4761906E0,5.929826E0,3.20892E1,1.4185762E0,4.6580017E1,7.499219E1,1.6890242E0,1.2312632E1,4.381223E0,1.5022628E1,6.630988E1,8.93135E0,4.359932E1,7.880596E1,1.7631367E2,3.81488E1,5.733355E1,5.6211553E0,1.0626786E0,1.5022837E0,6.509064E1,4.075766E0,1.1895319E1,2.984746E0,1.0392234E1,8.399781E0,1.8352743E0,1.51868105E1,1.0512678E1,1.2545593E0,1.0523878E1,2.0997791E0,4.9464363E1,2.9050148E0,1.3907344E0,1.1139814E0,1.4639854E0,1.0122051E0,2.5067348E0,3.423091E0,1.1601951E1,2.048725E1,3.965088E1,6.929138E0,8.872365E0,6.611982E1,1.1123302E1,1.1893289E0,2.53953E0,1.2483098E1,3.330963E1,3.300025E1,2.1758556E0,6.7554946E0,3.7647827E1,5.9514933E0,7.778644E0,7.102732E1,3.0145191E1,1.4616849E2,1.8193108E1,1.9955694E1,1.5703474E1,4.1630077E1,4.3684883E0,1.2526668E0],"tree_param":{"num_deleted":"0","num_feature":"54","num_nodes":"107","size_leaf_vector":"1"}},{"base_weights":[-3.7674956E-2,-6.455841E-1,2.4814732E-1,-8.069928E-1,-3.1076506E-1,-1.1825864E-1,3.8422298E-1,-8.9970434E-1,-3.325604E-1,-6.030342E-1,-1.830744E-1,6.6905074E-2,-4.5378414E-1,1.7766261E-1,5.283568E-1,-9.435449E-1,-5.559259E-1,4.181756E-1,-6.891734E-1,-7.820153E-1,-1.029153E-1,1.0370119E-2,-4.0553072E-1,-1.441465E-1,3.0650654E-1,-6.659776E-1,-1.12002855E-2,6.03887E-2,4.3141022E-1,6.2635916E-1,2.1456337E-1,-3.019528E-1,-7.841512E-1,-7.5787836E-1,-1.5811403E-1,7.9480076E-1,-5.088445E-1,-3.3894026E-1,-2.9264763E-1,-9.6425086E-1,-2.7878886E-1,-5.2608275E-1,6.160648E-1,2.5499457E-1,-5.0603896E-1,-2.3009631E-1,-8.134272E-1,2.225623E-1,-4.3994576E-1,-1.9561924E-2,6.073435E-1,-9.1427016E-1,-1.3967507E-1,4.0036812E-1,-5.125712E-1,4.6650296E-1,-1.1333886E-1,9.373217E-1,2.4254625E-1,5.7458985E-1,1.1427172E0,-4.7276333E-1,3.0033365E-1,-1.404658E-1,-2.8965095E-1,-2.8654394E-1,-7.917048E-2,2.1332078E-1,-1.16651766E-1,3.8097447E-1,1.1747821E-2,-2.604597E-1,4.5071658E-2,-1.7954408E-1,1.482218E-1,-1.0884581E-1,-3.0271137E-1,2.0279035E-1,-2.0290095E-1,-2.5286493E-1,-2.6846902E-2,7.741237E-2,2.4213548E-1,1.4334486E-1,-9.168594E-2,9.90564E-2,-2.168873E-1,-1.8521571E-1,1.051821E-2,-2.8204724E-1,-1.1194572E-1,-6.457997E-2,1.0730006E-1,-1.5762287E-1,4.0738806E-2,2.1596341E-1,-5.5898763E-2,-1.6820116E-2,1.9949882E-1,-3.622872E-1,-1.7223823E-1,3.6513186E-1,-1.2742387E-1,2.5347238E-2,3.2446557E-1,-2.8624907E-2,-2.649588E-1,1.5495263E-1,-5.7459E-2,6.053644E-3,-1.0874563E-1,3.3252382E-1,1.1293612E-1,2.1052698E-2,2.4080852E-1,2.5837004E-1,1.4401373E-1,4.047964E-1,1.3937174E-2,6.4122714E-2,-1.8266478E-1,2.943514E-1,4.8106182E-2],"categories":[],"categories_nodes":[],"categories_segments":[],"categories_sizes":[],"default_left":[0,0,0,0,0,0,0,0,0,0,0,0,0,0,0,0,0,0,0,0,0,0,0,0,0,0,0,0,0,0,0,0,0,0,0,0,0,0,0,0,0,0,0,0,0,0,0,0,0,0,0,0,0,0,0,0,0,0,0,0,0,0,0,0,0,0,0,0,0,0,0,0,0,0,0,0,0,0,0,0,0,0,0,0,0,0,0,0,0,0,0,0,0,0,0,0,0,0,0,0,0,0,0,0,0,0,0,0,0,0,0,0,0,0,0,0,0,0,0,0,0,0,0],"id":3,"left_children":[1,3,5,7,9,11,13,15,17,19,21,23,25,27,29,31,33,35,37,39,41,43,45,47,49,51,53,55,57,59,61,-1,63,65,67,69,71,73,-1,75,77,79,81,83,85,87,89,91,93,95,97,99,101,103,105,107,109,111,113,115,117,119,121,-1,-1,-1,-1,-1,-1,-1,-1,-1,-1,-1,-1,-1,-1,-1,-1,-1,-1,-1,-1,-1,-1,-1,-1,-1,-1,-1,-1,-1,-1,-1,-1,-1,-1,-1,-1,-1,-1,-1,-1,-1,-1,-1,-1,-1,-1,-1,-1,-1,-1,-1,-1,-1,-1,-1,-1,-1,-1,-1,-1],"loss_changes":[1.681073E2,1.6469894E1,3.2861717E1,8.855591E0,3.706112E0,1.1151444E1,1.4202118E1,2.0906982E0,9.821802E0,2.6637726E0,3.1286726E0,5.9212356E0,5.982808E0,5.89154E0,8.547653E0,7.4087524E-1,1.6524515E0,4.6256275E0,2.1281672E0,1.7878036E0,3.1328242E0,5.158168E0,2.2312245E0,6.8743505E0,5.3823543E0,5.5041046E0,4.68048E0,9.730274E0,5.7628593E0,5.080261E0,4.1925783E0,0E0,2.280838E0,1.1480713E0,2.0195417E0,3.1770053E0,1.1021119E0,3.0114615E0,0E0,6.6428185E-2,3.2541459E0,8.0295503E-1,5.7193756E-2,3.603603E0,2.6207097E0,2.5916548E0,1.9427776E-1,1.7661959E0,1.7893434E0,3.4933813E0,1.1276102E0,2.210556E0,6.316672E0,2.5922425E0,1.4951751E0,1.4576464E0,3.229838E0,1.1845846E0,4.481655E0,4.9271393E0,4.1374874E0,8.787825E-1,5.7227297E0,0E0,0E0,0E0,0E0,0E0,0E0,0E0,0E0,0E0,0E0,0E0,0E0,0E0,0E0,0E0,0E0,0E0,0E0,0E0,0E0,0E0,0E0,0E0,0E0,0E0,0E0,0E0,0E0,0E0,0E0,0E0,0E0,0E0,0E0,0E0,0E0,0E0,0E0,0E0,0E0,0E0,0E0,0E0,0E0,0E0,0E0,0E0,0E0,0E0,0E0,0E0,0E0,0E0,0E0,0E0,0E0,0E0,0E0,0E0,0E0],"parents":[2147483647,0,0,1,1,2,2,3,3,4,4,5,5,6,6,7,7,8,8,9,9,10,10,11,11,12,12,13,13,14,14,15,15,16,16,17,17,18,18,19,19,20,20,21,21,22,22,23,23,24,24,25,25,26,26,27,27,28,28,29,29,30,30,32,32,33,33,34,34,35,35,36,36,37,37,39,39,40,40,41,41,42,42,43,43,44,44,45,45,46,46,47,47,48,48,49,49,50,50,51,51,52,52,53,53,54,54,55,55,56,56,57,57,58,58,59,59,60,60,61,61,62,62],"right_children":[2,4,6,8,10,12,14,16,18,20,22,24,26,28,30,32,34,36,38,40,42,44,46,48,50,52,54,56,58,60,62,-1,64,66,68,70,72,74,-1,76,78,80,82,84,86,88,90,92,94,96,98,100,102,104,106,108,110,112,114,116,118,120,122,-1,-1,-1,-1,-1,-1,-1,-1,-1,-1,-1,-1,-1,-1,-1,-1,-1,-1,-1,-1,-1,-1,-1,-1,-1,-1,-1,-1,-1,-1,-1,-1,-1,-1,-1,-1,-1,-1,-1,-1,-1,-1,-1,-1,-1,-1,-1,-1,-1,-1,-1,-1,-1,-1,-1,-1,-1,-1,-1,-1],"split_conditions":[1E0,1E0,1E0,1.0265E2,1E0,2E1,1E0,1E0,6.3109E3,1E0,1E0,2.495E1,9.86E1,8.32E1,2.7E1,6.6683334E1,1E0,1.105E2,1E0,1.061E2,7E1,1E0,1E0,1.114E1,1E0,1E0,4.5E1,3E0,1.5E1,9.735E1,2.10455E3,-3.019528E-1,7.960137E1,1E0,5.2788887E1,1E0,1E0,1E0,-2.9264763E-1,2.4701E3,1.0605357E2,4.7472E3,1.011E2,1E0,2.4E1,8.205E1,1E0,1E0,1E0,4.94E1,4.905E1,3E1,2.4E1,4.01805E3,1E0,4.8575E1,1E0,1E0,9.7060715E1,2E0,9.7868034E1,3.0883333E1,7.955E1,-1.404658E-1,-2.8965095E-1,-2.8654394E-1,-7.917048E-2,2.1332078E-1,-1.16651766E-1,3.8097447E-1,1.1747821E-2,-2.604597E-1,4.5071658E-2,-1.7954408E-1,1.482218E-1,-1.0884581E-1,-3.0271137E-1,2.0279035E-1,-2.0290095E-1,-2.5286493E-1,-2.6846902E-2,7.741237E-2,2.4213548E-1,1.4334486E-1,-9.168594E-2,9.90564E-2,-2.168873E-1,-1.8521571E-1,1.051821E-2,-2.8204724E-1,-1.1194572E-1,-6.457997E-2,1.0730006E-1,-1.5762287E-1,4.0738806E-2,2.1596341E-1,-5.5898763E-2,-1.6820116E-2,1.9949882E-1,-3.622872E-1,-1.7223823E-1,3.6513186E-1,-1.2742387E-1,2.5347238E-2,3.2446557E-1,-2.8624907E-2,-2.649588E-1,1.5495263E-1,-5.7459E-2,6.053644E-3,-1.0874563E-1,3.3252382E-1,1.1293612E-1,2.1052698E-2,2.4080852E-1,2.5837004E-1,1.4401373E-1,4.047964E-1,1.3937174E-2,6.4122714E-2,-1.8266478E-1,2.943514E-1,4.8106182E-2],"split_indices":[1,23,43,16,2,46,32,32,53,43,9,0,16,16,46,0,20,16,9,16,46,37,30,0,9,32,46,46,46,16,53,0,0,43,0,28,31,20,0,53,0,53,16,26,46,0,17,33,30,16,16,46,46,53,28,0,26,31,0,46,0,0,16,0,0,0,0,0,0,0,0,0,0,0,0,0,0,0,0,0,0,0,0,0,0,0,0,0,0,0,0,0,0,0,0,0,0,0,0,0,0,0,0,0,0,0,0,0,0,0,0,0,0,0,0,0,0,0,0,0,0,0,0],"split_type":[0,0,0,0,0,0,0,0,0,0,0,0,0,0,0,0,0,0,0,0,0,0,0,0,0,0,0,0,0,0,0,0,0,0,0,0,0,0,0,0,0,0,0,0,0,0,0,0,0,0,0,0,0,0,0,0,0,0,0,0,0,0,0,0,0,0,0,0,0,0,0,0,0,0,0,0,0,0,0,0,0,0,0,0,0,0,0,0,0,0,0,0,0,0,0,0,0,0,0,0,0,0,0,0,0,0,0,0,0,0,0,0,0,0,0,0,0,0,0,0,0,0,0],"sum_hessian":[9.6557983E2,3.0839743E2,6.5718243E2,2.0713303E2,1.0126439E2,1.7800522E2,4.7917722E2,1.7252296E2,3.4610073E1,2.965801E1,7.1606384E1,1.15220184E2,6.2785027E1,1.9785736E2,2.8131985E2,1.5146292E2,2.1060034E1,1.1090304E1,2.3519768E1,2.1426352E1,8.231661E0,3.8810642E1,3.279574E1,6.1471638E1,5.374855E1,4.209713E1,2.0687893E1,1.3616452E2,6.169284E1,2.136101E2,6.770974E1,1.04763985E2,4.669894E1,1.3368359E1,7.691676E0,7.987721E0,3.1025836E0,1.1561365E1,1.1958402E1,1.505741E1,6.368941E0,5.3507075E0,2.880953E0,2.6678959E1,1.2131682E1,2.402626E1,8.76948E0,2.7556648E1,3.391499E1,2.624132E1,2.750723E1,2.810224E1,1.3994891E1,1.1472078E1,9.215816E0,4.02916E1,9.5872925E1,1.569298E1,4.599986E1,1.9606561E2,1.7544485E1,7.0113983E0,6.0698338E1,1.833664E1,2.8362299E1,8.8861265E0,4.482232E0,1.1767519E0,6.514924E0,4.4863334E0,3.5013878E0,1.8025115E0,1.3000723E0,9.029585E0,2.5317802E0,1.6743283E0,1.3383081E1,1.666442E0,4.702499E0,2.5614665E0,2.789241E0,1.820347E0,1.060606E0,1.9196726E1,7.482233E0,2.3912346E0,9.740447E0,9.224517E0,1.48017435E1,5.9278097E0,2.84167E0,6.3582726E0,2.1198376E1,2.9607445E1,4.3075447E0,4.218773E0,2.2022547E1,2.201537E0,2.5305693E1,1.3719557E1,1.4382684E1,1.8622288E0,1.2132662E1,8.605558E0,2.8665192E0,4.9273305E0,4.288485E0,3.7645855E1,2.6457446E0,6.3019676E1,3.2853245E1,1.1276786E1,4.416195E0,3.603603E1,9.96383E0,4.6617874E1,1.4944774E2,1.4568102E1,2.9763832E0,1.0658118E0,5.945586E0,9.326492E0,5.137185E1],"tree_param":{"num_deleted":"0","num_feature":"54","num_nodes":"123","size_leaf_vector":"1"}},{"base_weights":[-3.636685E-2,-5.5139744E-1,1.7752619E-1,-8.0443877E-1,-3.374376E-1,-9.890541E-2,2.8238353E-1,-9.0104145E-1,-4.2606935E-1,-6.484628E-1,-9.961334E-2,4.6119555E-3,-4.1603506E-1,4.2842722E-1,1.429571E-1,-9.3024194E-1,-5.644729E-1,-1.7183033E-1,-2.9401585E-1,-7.8433985E-1,-1.1883922E-1,6.3814884E-1,-1.3738702E-1,-9.175901E-2,9.015438E-1,2.2931136E-1,-4.6501336E-1,2.527096E-1,7.164936E-1,-7.4647576E-2,2.9526618E-1,-9.5295304E-1,-5.487654E-1,-8.139995E-1,-9.985778E-2,-5.252973E-1,-2.4134214E-3,-5.2660847E-1,-2.7217653E-1,-5.390786E-1,7.2492033E-1,-1.953993E-1,3.9090362E-1,-6.997098E-1,-5.9025776E-2,1.6569991E-1,-1.7550205E-1,1.0250428E0,8.024783E-3,-6.146798E-1,-8.069314E-2,-1.7228599E-1,3.2526731E-1,9.981123E-1,5.679187E-1,4.2583965E-2,-6.663066E-1,3.9809054E-1,-2.0532851E-1,-2.927234E-1,-1.7913899E-1,-1.2770261E-2,-2.5788832E-1,-2.7585492E-1,-5.0759014E-2,-1.2790349E-1,8.324933E-2,-2.2793151E-1,9.214078E-2,-9.347961E-2,1.2252127E-1,-2.0408416E-1,1.0040452E-1,6.9368765E-2,-2.0272331E-1,5.381156E-1,-4.0681295E-2,-3.0962506E-1,5.8247138E-2,9.968492E-2,-4.1717097E-2,-3.149408E-2,1.0392332E-1,-9.6242025E-2,3.7581213E-2,3.8954068E-2,3.4936386E-1,-2.2474368E-1,-1.1446454E-1,-1.2572469E-1,1.16875574E-1,1.1370176E-1,-1.20848335E-1,1.7779788E-1,5.6443706E-2,7.005724E-2,3.192776E-1,2.3079006E-1,9.892743E-2,-2.1001026E-2,2.0703496E-1,-5.361786E-2,-3.2587725E-1,-9.965643E-3,1.470325E-1,-9.393397E-2,1.8728863E-1],"categories":[],"categories_nodes":[],"categories_segments":[],"categories_sizes":[],"default_left":[0,0,0,0,0,0,0,0,0,0,0,0,0,0,0,0,0,0,0,0,0,0,0,0,0,0,0,0,0,0,0,0,0,0,0,0,0,0,0,0,0,0,0,0,0,0,0,0,0,0,0,0,0,0,0,0,0,0,0,0,0,0,0,0,0,0,0,0,0,0,0,0,0,0,0,0,0,0,0,0,0,0,0,0,0,0,0,0,0,0,0,0,0,0,0,0,0,0,0,0,0,0,0,0,0,0,0],"id":4,"left_children":[1,3,5,7,9,11,13,15,17,19,21,23,25,27,29,31,33,35,-1,37,39,41,43,45,47,-1,49,51,53,55,57,59,61,63,65,67,69,71,-1,73,75,-1,-1,77,79,81,83,85,-1,87,89,91,93,95,97,99,101,103,105,-1,-1,-1,-1,-1,-1,-1,-1,-1,-1,-1,-1,-1,-1,-1,-1,-1,-1,-1,-1,-1,-1,-1,-1,-1,-1,-1,-1,-1,-1,-1,-1,-1,-1,-1,-1,-1,-1,-1,-1,-1,-1,-1,-1,-1,-1,-1,-1],"loss_changes":[1.01062675E2,1.4302315E1,1.8820438E1,4.0975113E0,1.085162E1,5.879426E0,9.515091E0,4.259796E-1,3.6109128E0,4.4956264E0,2.4512038E0,1.1835446E1,2.9033408E0,1.1420475E1,8.045986E0,2.3516083E-1,1.1092277E0,1.1727481E0,0E0,1.1241894E0,5.4250765E0,4.5420885E0,3.5500994E0,2.6957304E0,1.407731E0,0E0,2.4200907E0,4.493559E0,3.043766E0,6.9978313E0,7.422802E0,7.609558E-2,1.1081021E0,2.8945684E-1,7.007901E-1,1.4722894E0,1.9382342E0,2.7043934E0,0E0,1.2143707E0,4.976907E0,0E0,0E0,3.1346655E0,2.3206642E0,1.5463946E0,4.1401315E0,1.2991514E0,0E0,6.781521E-1,2.2615495E0,2.9029112E0,4.4080276E0,1.1919632E0,2.5669174E0,6.230852E0,3.2206173E0,4.7255287E0,2.42763E0,0E0,0E0,0E0,0E0,0E0,0E0,0E0,0E0,0E0,0E0,0E0,0E0,0E0,0E0,0E0,0E0,0E0,0E0,0E0,0E0,0E0,0E0,0E0,0E0,0E0,0E0,0E0,0E0,0E0,0E0,0E0,0E0,0E0,0E0,0E0,0E0,0E0,0E0,0E0,0E0,0E0,0E0,0E0,0E0,0E0,0E0,0E0,0E0],"parents":[2147483647,0,0,1,1,2,2,3,3,4,4,5,5,6,6,7,7,8,8,9,9,10,10,11,11,12,12,13,13,14,14,15,15,16,16,17,17,19,19,20,20,21,21,22,22,23,23,24,24,26,26,27,27,28,28,29,29,30,30,31,31,32,32,33,33,34,34,35,35,36,36,37,37,39,39,40,40,43,43,44,44,45,45,46,46,47,47,49,49,50,50,51,51,52,52,53,53,54,54,55,55,56,56,57,57,58,58],"right_children":[2,4,6,8,10,12,14,16,18,20,22,24,26,28,30,32,34,36,-1,38,40,42,44,46,48,-1,50,52,54,56,58,60,62,64,66,68,70,72,-1,74,76,-1,-1,78,80,82,84,86,-1,88,90,92,94,96,98,100,102,104,106,-1,-1,-1,-1,-1,-1,-1,-1,-1,-1,-1,-1,-1,-1,-1,-1,-1,-1,-1,-1,-1,-1,-1,-1,-1,-1,-1,-1,-1,-1,-1,-1,-1,-1,-1,-1,-1,-1,-1,-1,-1,-1,-1,-1,-1,-1,-1,-1],"split_conditions":[1E0,1E0,1E0,1.033E2,1E0,3E1,1.1E1,1E0,7.8783E3,1E0,1.16175E3,9.385E1,1.97E1,7.57E1,1E0,1E0,1E0,1.0392541E2,-2.9401585E-1,2.6E1,8.205E1,1E0,2.3479E3,3.51E1,1E0,2.2931136E-1,1E0,1E0,2.294E2,2.92975E3,1E0,9.34E1,6.7E1,1E0,1E0,1E0,1E0,1E0,-2.7217653E-1,1.3E1,8.780268E1,-1.953993E-1,3.9090362E-1,8.19E1,3.28305E3,1.99E1,5.9305E2,7.2275E1,8.024783E-3,1E0,1E0,8.025E1,1E0,1E0,1E0,2.27185E3,8.780268E1,1E0,1.00125E2,-2.927234E-1,-1.7913899E-1,-1.2770261E-2,-2.5788832E-1,-2.7585492E-1,-5.0759014E-2,-1.2790349E-1,8.324933E-2,-2.2793151E-1,9.214078E-2,-9.347961E-2,1.2252127E-1,-2.0408416E-1,1.0040452E-1,6.9368765E-2,-2.0272331E-1,5.381156E-1,-4.0681295E-2,-3.0962506E-1,5.8247138E-2,9.968492E-2,-4.1717097E-2,-3.149408E-2,1.0392332E-1,-9.6242025E-2,3.7581213E-2,3.8954068E-2,3.4936386E-1,-2.2474368E-1,-1.1446454E-1,-1.2572469E-1,1.16875574E-1,1.1370176E-1,-1.20848335E-1,1.7779788E-1,5.6443706E-2,7.005724E-2,3.192776E-1,2.3079006E-1,9.892743E-2,-2.1001026E-2,2.0703496E-1,-5.361786E-2,-3.2587725E-1,-9.965643E-3,1.470325E-1,-9.393397E-2,1.8728863E-1],"split_indices":[1,2,23,16,39,46,46,32,53,32,53,16,16,16,19,36,43,0,0,46,0,43,53,53,37,0,36,20,53,53,26,16,46,40,23,32,30,19,0,46,0,0,0,16,53,16,53,0,0,8,20,53,17,4,17,53,0,4,0,0,0,0,0,0,0,0,0,0,0,0,0,0,0,0,0,0,0,0,0,0,0,0,0,0,0,0,0,0,0,0,0,0,0,0,0,0,0,0,0,0,0,0,0,0,0,0,0],"split_type":[0,0,0,0,0,0,0,0,0,0,0,0,0,0,0,0,0,0,0,0,0,0,0,0,0,0,0,0,0,0,0,0,0,0,0,0,0,0,0,0,0,0,0,0,0,0,0,0,0,0,0,0,0,0,0,0,0,0,0,0,0,0,0,0,0,0,0,0,0,0,0,0,0,0,0,0,0,0,0,0,0,0,0,0,0,0,0,0,0,0,0,0,0,0,0,0,0,0,0,0,0,0,0,0,0,0,0],"sum_hessian":[9.155164E2,2.6818323E2,6.473332E2,1.216056E2,1.4657762E2,1.7803714E2,4.6929605E2,9.577229E1,2.5833302E1,6.2765995E1,8.381163E1,1.3496678E2,4.307036E1,2.2819649E2,2.4109955E2,8.65034E1,9.268891E0,1.8605068E1,7.2282314E0,4.9568146E1,1.3197849E1,3.3080342E0,8.05036E1,1.226828E2,1.2283974E1,1.1339993E0,4.193636E1,1.4290384E2,8.529265E1,9.948078E1,1.4161876E2,8.0228935E1,6.27447E0,5.5410333E0,3.7278576E0,5.3475213E0,1.3257547E1,1.7712507E1,3.1855639E1,9.051029E0,4.146819E0,1.13231E0,2.175724E0,8.876472E0,7.162713E1,2.9870502E1,9.28123E1,1.0613817E1,1.6701565E0,2.975099E1,1.218537E1,2.0639088E1,1.22264755E2,2.7482523E1,5.7810123E1,8.380388E1,1.5676905E1,1.1765639E2,2.3962376E1,7.3762024E1,6.4669113E0,2.8197749E0,3.454695E0,4.395673E0,1.1453605E0,1.9290366E0,1.7988211E0,4.240401E0,1.1071205E0,7.702265E0,5.5552826E0,1.5209059E1,2.5034494E0,1.2595761E0,7.791454E0,1.3658915E0,2.7809277E0,6.3577805E0,2.5186927E0,1.1626752E1,6.0000374E1,1.21262045E1,1.7744299E1,6.2534832E1,3.0277468E1,1.6913258E0,8.922492E0,1.7464432E1,1.2286559E1,7.149678E0,5.035692E0,5.8960214E0,1.4743067E1,4.031902E1,8.194574E1,2.548994E0,2.4933529E1,3.0115335E1,2.7694788E1,7.215081E1,1.16530695E1,7.914005E0,7.7629E0,2.0800144E1,9.685624E1,2.1758142E1,2.2042327E0],"tree_param":{"num_deleted":"0","num_feature":"54","num_nodes":"107","size_leaf_vector":"1"}},{"base_weights":[-3.258102E-2,-4.6388283E-1,1.2859488E-1,-7.2384214E-1,-2.6725382E-1,-1.05017446E-1,2.1324594E-1,-8.3075076E-1,-3.5550857E-1,-5.546255E-1,-7.539396E-2,4.173817E-2,-3.5068166E-1,2.869408E-1,3.6240383E-3,-8.87634E-1,-5.803584E-1,-1.0018284E-1,-8.4338564E-1,-6.936582E-1,-7.744167E-2,-2.0529027E-1,6.3534E-2,-9.496662E-3,7.0976764E-1,-7.129858E-1,-1.2484145E-1,3.6406985E-1,5.2404024E-2,-3.7638998E-1,1.3504688E-1,-2.7646235E-1,-4.0025112E-1,-8.103117E-1,-1.823559E-1,1.00166E-1,-6.0925126E-1,-3.6546685E-2,-2.817098E-1,-8.536198E-1,-4.207615E-1,-4.496145E-1,5.4966617E-1,4.3901983E-1,-2.7488694E-1,3.8359618E-1,-4.4808022E-4,-1.5887557E-1,1.5555827E-1,1.8146716E-1,1.0980004E0,9.0188086E-2,-8.319093E-1,5.659238E-2,-6.0013676E-1,2.678286E-1,7.1630245E-1,-1.3914089E-1,3.988495E-1,2.2259606E-1,-4.561204E-1,8.153443E-2,9.8445E-1,1.034429E-1,-2.4787629E-1,-1.1383904E-1,-2.8290513E-1,2.1669076E-1,-1.7543444E-1,7.449856E-2,-2.0438686E-1,-2.6115143E-1,8.159162E-3,-2.912535E-1,-1.6050012E-1,1.2907998E-1,-1.6080457E-1,-1.6455654E-2,-2.611183E-1,3.717137E-1,-3.2377034E-2,2.3931198E-1,-8.9539826E-2,-1.0855809E-1,1.12472616E-1,-1.1840789E-1,4.0374614E-2,-1.7620483E-1,-7.6116794E-3,7.4397814E-3,1.18315205E-1,2.5585794E-1,-1.8074563E-1,1.04115434E-1,4.095041E-1,-1.9308433E-1,1.8364531E-1,-3.2136083E-1,-1.7561902E-1,2.0701617E-1,-3.5684116E-2,-2.0718457E-1,-9.6722215E-4,1.399871E-1,4.313551E-2,2.8704455E-1,1.1038307E-1,1.9787045E-2,-1.8805872E-1,1.586589E-1,-2.0421351E-1,-2.9198667E-1,-8.2001515E-2,-9.829105E-2,5.3712875E-2,4.065725E-1,-2.5347376E-2],"categories":[],"categories_nodes":[],"categories_segments":[],"categories_sizes":[],"default_left":[0,0,0,0,0,0,0,0,0,0,0,0,0,0,0,0,0,0,0,0,0,0,0,0,0,0,0,0,0,0,0,0,0,0,0,0,0,0,0,0,0,0,0,0,0,0,0,0,0,0,0,0,0,0,0,0,0,0,0,0,0,0,0,0,0,0,0,0,0,0,0,0,0,0,0,0,0,0,0,0,0,0,0,0,0,0,0,0,0,0,0,0,0,0,0,0,0,0,0,0,0,0,0,0,0,0,0,0,0,0,0,0,0,0,0,0,0],"id":5,"left_children":[1,3,5,7,9,11,13,15,17,19,21,23,25,27,29,31,33,35,37,39,41,43,45,47,49,51,53,55,57,59,61,-1,63,65,67,69,71,-1,-1,73,75,77,79,81,83,-1,85,87,89,91,93,95,97,99,101,103,105,107,109,-1,111,113,115,-1,-1,-1,-1,-1,-1,-1,-1,-1,-1,-1,-1,-1,-1,-1,-1,-1,-1,-1,-1,-1,-1,-1,-1,-1,-1,-1,-1,-1,-1,-1,-1,-1,-1,-1,-1,-1,-1,-1,-1,-1,-1,-1,-1,-1,-1,-1,-1,-1,-1,-1,-1,-1,-1],"loss_changes":[6.073066E1,1.1953796E1,1.2602151E1,3.7115746E0,7.505499E0,6.1387453E0,7.2172394E0,5.974808E-1,2.9846647E0,3.5716896E0,1.5152497E0,3.6769638E0,5.117552E0,6.234617E0,6.171503E0,6.518936E-1,1.4401197E0,1.8263718E0,4.6048164E-1,1.4825745E0,3.3874247E0,2.0603476E0,3.1870973E0,2.504638E0,1.3701415E0,2.3885927E0,3.5187438E0,8.621483E0,5.8103204E0,3.170127E0,4.0922766E0,0E0,2.1211843E0,2.5428438E-1,3.2051616E0,1.7067007E0,8.599402E-1,0E0,0E0,4.3777466E-1,1.9533267E0,1.4462066E0,2.6094022E0,1.4554181E0,2.376697E0,0E0,2.1791015E0,3.0335994E0,1.49822E0,2.8503466E0,3.709402E-1,1.9360491E0,6.232271E-1,3.4358091E0,6.053777E-1,5.0075445E0,4.272444E0,5.701745E0,4.729999E0,0E0,2.594657E0,3.5476131E0,2.235085E0,0E0,0E0,0E0,0E0,0E0,0E0,0E0,0E0,0E0,0E0,0E0,0E0,0E0,0E0,0E0,0E0,0E0,0E0,0E0,0E0,0E0,0E0,0E0,0E0,0E0,0E0,0E0,0E0,0E0,0E0,0E0,0E0,0E0,0E0,0E0,0E0,0E0,0E0,0E0,0E0,0E0,0E0,0E0,0E0,0E0,0E0,0E0,0E0,0E0,0E0,0E0,0E0,0E0,0E0],"parents":[2147483647,0,0,1,1,2,2,3,3,4,4,5,5,6,6,7,7,8,8,9,9,10,10,11,11,12,12,13,13,14,14,15,15,16,16,17,17,18,18,19,19,20,20,21,21,22,22,23,23,24,24,25,25,26,26,27,27,28,28,29,29,30,30,32,32,33,33,34,34,35,35,36,36,39,39,40,40,41,41,42,42,43,43,44,44,46,46,47,47,48,48,49,49,50,50,51,51,52,52,53,53,54,54,55,55,56,56,57,57,58,58,60,60,61,61,62,62],"right_children":[2,4,6,8,10,12,14,16,18,20,22,24,26,28,30,32,34,36,38,40,42,44,46,48,50,52,54,56,58,60,62,-1,64,66,68,70,72,-1,-1,74,76,78,80,82,84,-1,86,88,90,92,94,96,98,100,102,104,106,108,110,-1,112,114,116,-1,-1,-1,-1,-1,-1,-1,-1,-1,-1,-1,-1,-1,-1,-1,-1,-1,-1,-1,-1,-1,-1,-1,-1,-1,-1,-1,-1,-1,-1,-1,-1,-1,-1,-1,-1,-1,-1,-1,-1,-1,-1,-1,-1,-1,-1,-1,-1,-1,-1,-1,-1,-1,-1],"split_conditions":[1E0,1E0,1E0,1.033E2,1E0,1.8E1,1E0,1E0,7.7467E3,1E0,9.99E1,1E0,7.715E1,3.1E1,1E0,1E0,4.7472E3,1E0,7.1E1,1E0,8.205E1,1.16175E3,1.0015E2,1E0,1E1,1.97E1,4.8E1,8.98E1,9.56E1,5.09E1,3.5824E3,-2.7646235E-1,6.7E1,5.2788887E1,5.329E3,1E0,1E0,-3.6546685E-2,-2.817098E-1,1E0,3.505E1,6.05E1,8.780268E1,1E0,6.5E1,3.8359618E-1,1E0,1E0,1E0,4E0,1E0,1.94E1,1E0,8.374861E1,6.4E1,4.4575E1,1E0,3E0,1.061E2,2.2259606E-1,4E0,1E0,1E0,1.034429E-1,-2.4787629E-1,-1.1383904E-1,-2.8290513E-1,2.1669076E-1,-1.7543444E-1,7.449856E-2,-2.0438686E-1,-2.6115143E-1,8.159162E-3,-2.912535E-1,-1.6050012E-1,1.2907998E-1,-1.6080457E-1,-1.6455654E-2,-2.611183E-1,3.717137E-1,-3.2377034E-2,2.3931198E-1,-8.9539826E-2,-1.0855809E-1,1.12472616E-1,-1.1840789E-1,4.0374614E-2,-1.7620483E-1,-7.6116794E-3,7.4397814E-3,1.18315205E-1,2.5585794E-1,-1.8074563E-1,1.04115434E-1,4.095041E-1,-1.9308433E-1,1.8364531E-1,-3.2136083E-1,-1.7561902E-1,2.0701617E-1,-3.5684116E-2,-2.0718457E-1,-9.6722215E-4,1.399871E-1,4.313551E-2,2.8704455E-1,1.1038307E-1,1.9787045E-2,-1.8805872E-1,1.586589E-1,-2.0421351E-1,-2.9198667E-1,-8.2001515E-2,-9.829105E-2,5.3712875E-2,4.065725E-1,-2.5347376E-2],"split_indices":[1,2,43,16,39,46,26,20,53,32,16,36,16,46,20,36,53,26,46,13,0,53,16,9,46,16,46,16,16,53,53,0,46,0,53,17,30,0,0,30,16,16,0,32,46,0,4,4,6,46,28,16,40,0,46,0,48,52,16,0,46,23,9,0,0,0,0,0,0,0,0,0,0,0,0,0,0,0,0,0,0,0,0,0,0,0,0,0,0,0,0,0,0,0,0,0,0,0,0,0,0,0,0,0,0,0,0,0,0,0,0,0,0,0,0,0,0],"split_type":[0,0,0,0,0,0,0,0,0,0,0,0,0,0,0,0,0,0,0,0,0,0,0,0,0,0,0,0,0,0,0,0,0,0,0,0,0,0,0,0,0,0,0,0,0,0,0,0,0,0,0,0,0,0,0,0,0,0,0,0,0,0,0,0,0,0,0,0,0,0,0,0,0,0,0,0,0,0,0,0,0,0,0,0,0,0,0,0,0,0,0,0,0,0,0,0,0,0,0,0,0,0,0,0,0,0,0,0,0,0,0,0,0,0,0,0,0],"sum_hessian":[8.7177E2,2.3664282E2,6.351272E2,1.0075517E2,1.3588765E2,1.688659E2,4.662613E2,7.711668E1,2.3638494E1,5.3645508E1,8.224215E1,1.0623376E2,6.263214E1,3.4470697E2,1.2155434E2,6.0766907E1,1.634977E1,1.630879E1,7.329704E0,4.1190548E1,1.2454961E1,4.2255753E1,3.9986397E1,9.9582054E1,6.651708E0,2.3221697E1,3.9410446E1,2.589855E2,8.572145E1,3.0756582E1,9.079775E1,5.5981483E1,4.785426E0,9.706002E0,6.6437683E0,1.2279364E1,4.0294266E0,1.1239859E0,6.2057176E0,2.4627089E1,1.656346E1,7.993847E0,4.461114E0,3.601921E0,3.865383E1,1.0505348E0,3.893586E1,5.2293E1,4.7289055E1,3.4391668E0,3.2125413E0,3.02608E0,2.0195618E1,2.9160124E1,1.0250322E1,2.0479054E2,5.419497E1,5.5586704E1,3.0134747E1,1.4940056E0,2.9262577E1,8.644754E1,4.350211E0,1.810149E0,2.9752774E0,3.194386E0,6.5116158E0,1.8007606E0,4.843008E0,1.0895769E1,1.3835946E0,2.5960357E0,1.4333909E0,1.6506899E1,8.120189E0,1.6496099E0,1.491385E1,4.707643E0,3.286204E0,1.7462358E0,2.7148778E0,2.3683727E0,1.2335484E0,3.448167E1,4.172159E0,9.442824E0,2.9493036E1,1.1615138E1,4.067786E1,3.1271496E1,1.6017557E1,1.8052325E0,1.6339343E0,1.4458845E0,1.7666568E0,1.1609255E0,1.8651544E0,8.550291E0,1.1645326E1,5.691263E0,2.346886E1,8.764799E0,1.4855229E0,7.762508E1,1.2716547E2,3.102687E1,2.3168097E1,3.9739944E1,1.5846763E1,2.7350937E1,2.7838097E0,6.5121264E0,2.275045E1,1.6182293E1,7.026525E1,3.030993E0,1.3192182E0],"tree_param":{"num_deleted":"0","num_feature":"54","num_nodes":"117","size_leaf_vector":"1"}},{"base_weights":[-2.9732084E-2,4.0479284E-2,-6.452842E-1,-8.4903695E-2,1.7685361E-1,-7.859897E-1,-3.5612094E-1,7.23303E-2,-1.7954974E-1,2.4179253E-1,-2.1741224E-2,-8.262392E-1,-3.4903628E-1,-5.1324433E-1,1.1742577E-1,-6.652528E-2,3.716257E-1,-3.3534628E-1,7.137095E-3,3.0251592E-1,-3.5389148E-2,-4.374044E-1,6.0621228E-2,-8.6382097E-1,-3.5729995E-1,-2.3528367E-1,1.07084855E-1,-5.1178366E-2,-6.424643E-1,-3.100881E-1,7.836826E-1,-2.5454413E-2,-7.94835E-1,4.6140715E-1,-1.5067745E-2,-6.312414E-1,-2.3477128E-1,4.656536E-1,-6.857016E-2,2.7692387E-1,3.975165E-1,4.6280554E-1,-1.8885182E-1,2.7507636E-1,-6.9770825E-1,5.0850356E-1,-3.455303E-2,-1.0029789E-1,-2.634696E-1,-2.3418647E-1,2.3698464E-1,-9.700743E-2,1.6403629E-1,-4.4785744E-1,1.7219654E-1,-2.4708085E-1,-3.0944246E-1,1.2215396E-1,-5.528469E-1,-4.8579156E-2,3.8911387E-1,-1.7416254E-2,2.3175843E-1,-3.1650388E-1,2.1306578E-2,8.4640115E-2,2.6698992E-1,-1.590684E-1,9.88667E-2,-2.429556E-1,-1.0834499E-1,-3.0003162E-2,-1.6337457E-1,-1.8513423E-1,2.5259864E-1,-4.6056602E-2,5.858829E-2,9.073763E-2,-2.4004424E-1,-8.351097E-4,3.186752E-1,-2.0491482E-1,-4.161837E-3,-4.903518E-2,2.2404236E-1,1.1707086E-1,-2.6173297E-1,2.7392635E-1,3.1881027E-2,5.6764364E-2,-6.342209E-2,1.3005148E-1,-2.149402E-2,-2.4343213E-1,1.00218E-1,2.3942443E-2,-2.5015774E-1,-2.3300953E-1,-1.5613285E-2],"categories":[],"categories_nodes":[],"categories_segments":[],"categories_sizes":[],"default_left":[0,0,0,0,0,0,0,0,0,0,0,0,0,0,0,0,0,0,0,0,0,0,0,0,0,0,0,0,0,0,0,0,0,0,0,0,0,0,0,0,0,0,0,0,0,0,0,0,0,0,0,0,0,0,0,0,0,0,0,0,0,0,0,0,0,0,0,0,0,0,0,0,0,0,0,0,0,0,0,0,0,0,0,0,0,0,0,0,0,0,0,0,0,0,0,0,0,0,0],"id":6,"left_children":[1,3,5,7,9,11,13,15,17,19,21,23,25,27,29,31,33,35,37,39,41,43,45,47,49,-1,51,53,55,57,59,61,63,65,67,69,71,73,75,77,-1,79,81,83,85,87,89,-1,-1,-1,91,-1,-1,93,-1,-1,95,-1,97,-1,-1,-1,-1,-1,-1,-1,-1,-1,-1,-1,-1,-1,-1,-1,-1,-1,-1,-1,-1,-1,-1,-1,-1,-1,-1,-1,-1,-1,-1,-1,-1,-1,-1,-1,-1,-1,-1,-1,-1],"loss_changes":[3.6259747E1,1.2898813E1,3.2149162E0,5.864959E0,4.664073E0,7.1323395E-1,2.2882578E0,6.1951537E0,7.150406E0,4.5940895E0,3.1054158E0,5.9749603E-1,1.3813317E0,1.3207035E0,2.5997183E0,3.038879E0,1.645822E0,3.8391418E0,3.9467494E0,5.4812927E0,3.8972054E0,2.9728909E0,3.2546256E0,6.423187E-2,1.5737576E0,0E0,9.4728047E-1,1.7551436E0,8.085866E-1,1.2274445E0,1.9175727E0,2.5901415E0,1.297333E0,2.694706E0,1.9258163E0,1.318614E0,4.186876E0,7.084465E0,2.2192454E0,6.2730656E0,0E0,3.3590295E0,3.3462687E0,1.1004735E0,2.481996E0,2.0791705E0,2.5556061E0,0E0,0E0,0E0,2.1687056E-1,0E0,0E0,1.4814508E0,0E0,0E0,1.6613272E0,0E0,4.8927462E-1,0E0,0E0,0E0,0E0,0E0,0E0,0E0,0E0,0E0,0E0,0E0,0E0,0E0,0E0,0E0,0E0,0E0,0E0,0E0,0E0,0E0,0E0,0E0,0E0,0E0,0E0,0E0,0E0,0E0,0E0,0E0,0E0,0E0,0E0,0E0,0E0,0E0,0E0,0E0,0E0],"parents":[2147483647,0,0,1,1,2,2,3,3,4,4,5,5,6,6,7,7,8,8,9,9,10,10,11,11,12,12,13,13,14,14,15,15,16,16,17,17,18,18,19,19,20,20,21,21,22,22,23,23,24,24,26,26,27,27,28,28,29,29,30,30,31,31,32,32,33,33,34,34,35,35,36,36,37,37,38,38,39,39,41,41,42,42,43,43,44,44,45,45,46,46,50,50,53,53,56,56,58,58],"right_children":[2,4,6,8,10,12,14,16,18,20,22,24,26,28,30,32,34,36,38,40,42,44,46,48,50,-1,52,54,56,58,60,62,64,66,68,70,72,74,76,78,-1,80,82,84,86,88,90,-1,-1,-1,92,-1,-1,94,-1,-1,96,-1,98,-1,-1,-1,-1,-1,-1,-1,-1,-1,-1,-1,-1,-1,-1,-1,-1,-1,-1,-1,-1,-1,-1,-1,-1,-1,-1,-1,-1,-1,-1,-1,-1,-1,-1,-1,-1,-1,-1,-1,-1],"split_conditions":[1E0,1E0,9.34E1,1E1,1E0,1E0,1E0,6.475E1,1E0,4.4E1,4.465E1,1E0,6.4E1,6.6149E3,1E0,5.875E1,8E0,1E0,1.43165E3,4.1568E3,3E0,4.12E1,1E0,1.94E1,4.4598E3,-2.3528367E-1,1E0,1.0559672E2,1E0,9.634091E1,5.8E1,4.6875927E1,1E0,6.572692E1,6.38E2,1E0,1E0,8.748E2,1E0,3.77885E3,3.975165E-1,1E0,9.445E1,1E0,1.69E1,4.170625E1,1E0,-1.0029789E-1,-2.634696E-1,-2.3418647E-1,7.795227E1,-9.700743E-2,1.6403629E-1,6.0427E3,1.7219654E-1,-2.4708085E-1,1E0,1.2215396E-1,1.0585E2,-4.8579156E-2,3.8911387E-1,-1.7416254E-2,2.3175843E-1,-3.1650388E-1,2.1306578E-2,8.4640115E-2,2.6698992E-1,-1.590684E-1,9.88667E-2,-2.429556E-1,-1.0834499E-1,-3.0003162E-2,-1.6337457E-1,-1.8513423E-1,2.5259864E-1,-4.6056602E-2,5.858829E-2,9.073763E-2,-2.4004424E-1,-8.351097E-4,3.186752E-1,-2.0491482E-1,-4.161837E-3,-4.903518E-2,2.2404236E-1,1.1707086E-1,-2.6173297E-1,2.7392635E-1,3.1881027E-2,5.6764364E-2,-6.342209E-2,1.3005148E-1,-2.149402E-2,-2.4343213E-1,1.00218E-1,2.3942443E-2,-2.5015774E-1,-2.3300953E-1,-1.5613285E-2],"split_indices":[3,32,16,46,26,32,20,16,39,46,16,36,46,53,28,16,46,1,53,53,52,53,52,16,53,0,43,0,23,0,46,0,19,0,53,13,33,53,36,53,0,36,16,37,0,0,28,0,0,0,0,0,0,53,0,0,9,0,16,0,0,0,0,0,0,0,0,0,0,0,0,0,0,0,0,0,0,0,0,0,0,0,0,0,0,0,0,0,0,0,0,0,0,0,0,0,0,0,0],"split_type":[0,0,0,0,0,0,0,0,0,0,0,0,0,0,0,0,0,0,0,0,0,0,0,0,0,0,0,0,0,0,0,0,0,0,0,0,0,0,0,0,0,0,0,0,0,0,0,0,0,0,0,0,0,0,0,0,0,0,0,0,0,0,0,0,0,0,0,0,0,0,0,0,0,0,0,0,0,0,0,0,0,0,0,0,0,0,0,0,0,0,0,0,0,0,0,0,0,0,0],"sum_hessian":[8.373773E2,7.524817E2,8.4895645E1,3.9223605E2,3.602456E2,5.5951668E1,2.8943981E1,1.474746E2,2.4476147E2,2.7131143E2,8.893417E1,5.041668E1,5.534987E0,2.1670012E1,7.2739687E0,1.0126929E2,4.620531E1,1.329848E2,1.1177667E2,2.2248032E2,4.8831135E1,1.3994852E1,7.493932E1,4.5896378E1,4.5203047E0,2.4641643E0,3.0708225E0,5.0408697E0,1.6629143E1,4.7564816E0,2.5174875E0,9.684306E1,4.4262276E0,3.7342106E1,8.863204E0,3.239659E1,1.0058821E2,1.5110445E1,9.666622E1,2.1828783E2,4.1924787E0,1.1024832E1,3.78063E1,3.7296453E0,1.0265206E1,1.2372497E1,6.256683E1,1.8572183E0,4.4039158E1,2.4567564E0,2.0635483E0,1.6854577E0,1.3853648E0,3.2575302E0,1.7833395E0,9.816559E0,6.8125825E0,1.0314885E0,3.724993E0,1.1266936E0,1.3907938E0,9.393289E1,2.9101665E0,3.2355335E0,1.1906941E0,2.7497696E1,9.844412E0,3.3367262E0,5.526478E0,1.8297848E1,1.4098742E1,7.1019226E1,2.9568981E1,3.7323587E0,1.1378086E1,7.3440155E1,2.322607E1,2.139351E2,4.3527308E0,6.765456E0,4.259376E0,9.126498E0,2.8679804E1,2.2715218E0,1.4581234E0,1.2498729E0,9.015334E0,5.5350513E0,6.837445E0,2.7589205E1,3.4977623E1,1.0135614E0,1.049987E0,2.1978137E0,1.0597163E0,4.396831E0,2.4157517E0,2.193585E0,1.531408E0],"tree_param":{"num_deleted":"0","num_feature":"54","num_nodes":"99","size_leaf_vector":"1"}},{"base_weights":[-2.5710272E-2,2.8011436E-2,-5.668603E-1,-1.23370625E-1,9.484814E-2,-6.7563903E-1,-1.99303E-1,-8.425168E-2,-4.884705E-1,1.9618356E-1,2.1601664E-2,-7.29581E-1,-2.765434E-1,7.925856E-2,-7.6483774E-1,-1.406339E-1,1.4592747E-1,-5.87896E-1,1.890346E-1,7.3770344E-2,4.2238098E-1,-1.0784767E-1,1.1303948E-1,-7.8967106E-1,-4.6906975E-1,-6.619009E-1,2.0726389E-1,5.805823E-1,-2.6227507E-1,-2.6481158E-1,-3.423057E-2,-9.910898E-2,-7.395858E-1,6.596171E-1,-4.804482E-2,-8.188246E-1,-9.284143E-3,1.7823982E-1,-1.0173648E-1,5.41784E-1,6.9972344E-2,-5.0732613E-2,-7.1943325E-1,1.3742872E-1,-6.07994E-1,-8.438699E-1,-2.3305802E-1,-7.370811E-1,-1.1133109E-1,-3.4819566E-2,-2.3803295E-1,-9.4477795E-2,1.8546441E-1,-7.343502E-2,8.638761E-1,-6.4177644E-1,5.9090592E-2,-3.879555E-2,2.1208672E-1,-2.8766358E-1,-2.1658367E-2,6.471271E-3,2.8041658E-1,-1.24258146E-1,5.1498946E-2,-1.866345E-2,-2.6150614E-1,1.2772931E-1,-2.383E-1,3.5648633E-2,2.4798886E-1,-1.0194516E-1,5.5731557E-2,1.3054198E-1,2.8442457E-1,-1.622274E-1,9.243369E-2,1.8176207E-3,-1.9624361E-1,-2.583594E-1,8.608775E-2,2.2163096E-1,3.2872424E-2,-2.6046008E-1,9.768937E-2,-1.8310247E-1,-2.8713885E-1,1.03199326E-1,-2.1057881E-1,-6.2768064E-2,-2.5307032E-1,2.7554333E-1,-1.4919253E-1,3.3008546E-2,3.315112E-1,-2.4149245E-1,-3.503157E-2,1.6019303E-1,-2.0696339E-1],"categories":[],"categories_nodes":[],"categories_segments":[],"categories_sizes":[],"default_left":[0,0,0,0,0,0,0,0,0,0,0,0,0,0,0,0,0,0,0,0,0,0,0,0,0,0,0,0,0,0,0,0,0,0,0,0,0,0,0,0,0,0,0,0,0,0,0,0,0,0,0,0,0,0,0,0,0,0,0,0,0,0,0,0,0,0,0,0,0,0,0,0,0,0,0,0,0,0,0,0,0,0,0,0,0,0,0,0,0,0,0,0,0,0,0,0,0,0,0],"id":7,"left_children":[1,3,5,7,9,11,13,15,17,19,21,23,25,27,29,31,33,35,-1,37,39,41,43,45,47,49,51,53,55,-1,-1,57,59,61,63,65,67,69,71,73,75,77,79,81,83,85,87,89,91,-1,-1,-1,-1,-1,93,95,97,-1,-1,-1,-1,-1,-1,-1,-1,-1,-1,-1,-1,-1,-1,-1,-1,-1,-1,-1,-1,-1,-1,-1,-1,-1,-1,-1,-1,-1,-1,-1,-1,-1,-1,-1,-1,-1,-1,-1,-1,-1,-1],"loss_changes":[2.3595182E1,7.4866424E0,2.7958183E0,3.19682E0,3.8040304E0,1.006773E0,2.9208875E0,2.6937337E0,2.7873878E0,5.9259176E0,3.5505579E0,3.9418983E-1,1.6836228E0,2.3902032E0,3.660562E-1,4.054407E0,4.1188135E0,2.7282758E0,0E0,2.5998049E0,3.1320105E0,4.303931E0,3.1729174E0,9.5650864E-1,1.0318265E0,2.5653768E-1,1.1472918E0,1.5226122E0,1.0700703E0,0E0,0E0,3.8988318E0,1.4829016E0,1.9652729E0,2.5413632E0,5.306425E-1,2.6784775E0,3.3158853E0,3.7030423E0,2.0190945E0,3.106401E0,3.9352906E0,1.7504911E0,2.7789814E0,1.7238731E0,3.270588E-1,1.5329766E0,1.8683481E-1,2.9028146E0,0E0,0E0,0E0,0E0,0E0,6.774957E-1,2.4570954E-1,2.323961E0,0E0,0E0,0E0,0E0,0E0,0E0,0E0,0E0,0E0,0E0,0E0,0E0,0E0,0E0,0E0,0E0,0E0,0E0,0E0,0E0,0E0,0E0,0E0,0E0,0E0,0E0,0E0,0E0,0E0,0E0,0E0,0E0,0E0,0E0,0E0,0E0,0E0,0E0,0E0,0E0,0E0,0E0],"parents":[2147483647,0,0,1,1,2,2,3,3,4,4,5,5,6,6,7,7,8,8,9,9,10,10,11,11,12,12,13,13,14,14,15,15,16,16,17,17,19,19,20,20,21,21,22,22,23,23,24,24,25,25,26,26,27,27,28,28,31,31,32,32,33,33,34,34,35,35,36,36,37,37,38,38,39,39,40,40,41,41,42,42,43,43,44,44,45,45,46,46,47,47,48,48,54,54,55,55,56,56],"right_children":[2,4,6,8,10,12,14,16,18,20,22,24,26,28,30,32,34,36,-1,38,40,42,44,46,48,50,52,54,56,-1,-1,58,60,62,64,66,68,70,72,74,76,78,80,82,84,86,88,90,92,-1,-1,-1,-1,-1,94,96,98,-1,-1,-1,-1,-1,-1,-1,-1,-1,-1,-1,-1,-1,-1,-1,-1,-1,-1,-1,-1,-1,-1,-1,-1,-1,-1,-1,-1,-1,-1,-1,-1,-1,-1,-1,-1,-1,-1,-1,-1,-1,-1],"split_conditions":[1E0,1E0,1.0355548E2,6E1,1.1E1,1E0,7.2E1,9.155E1,1.1555E2,7.57E1,7.911048E1,1E0,1E0,1.092E2,1E0,8.565E1,9.263125E1,1E0,1.890346E-1,4.0275E1,7.795227E1,3.39985E3,7E1,1E0,4.7472E3,4.8575E1,1E0,1.0585E2,1E0,-2.6481158E-1,-3.423057E-2,8.365E1,1E0,8.740903E1,1.0265E2,2E0,1.0525E2,3.816111E1,7.005E1,7.350116E1,8.006212E1,7.658803E1,4.93925E3,1.17705E3,1.065E2,1.34575E3,6.7E1,3E0,5.0432E3,-3.4819566E-2,-2.3803295E-1,-9.4477795E-2,1.8546441E-1,-7.343502E-2,6.4E1,1.1325E2,6.9E1,-3.879555E-2,2.1208672E-1,-2.8766358E-1,-2.1658367E-2,6.471271E-3,2.8041658E-1,-1.24258146E-1,5.1498946E-2,-1.866345E-2,-2.6150614E-1,1.2772931E-1,-2.383E-1,3.5648633E-2,2.4798886E-1,-1.0194516E-1,5.5731557E-2,1.3054198E-1,2.8442457E-1,-1.622274E-1,9.243369E-2,1.8176207E-3,-1.9624361E-1,-2.583594E-1,8.608775E-2,2.2163096E-1,3.2872424E-2,-2.6046008E-1,9.768937E-2,-1.8310247E-1,-2.8713885E-1,1.03199326E-1,-2.1057881E-1,-6.2768064E-2,-2.5307032E-1,2.7554333E-1,-1.4919253E-1,3.3008546E-2,3.315112E-1,-2.4149245E-1,-3.503157E-2,1.6019303E-1,-2.0696339E-1],"split_indices":[3,23,0,46,46,32,46,16,16,16,0,20,43,16,36,16,0,31,0,0,0,53,46,36,53,0,23,16,4,0,0,16,48,0,16,52,16,0,16,0,0,0,53,53,16,53,46,52,53,0,0,0,0,0,46,16,46,0,0,0,0,0,0,0,0,0,0,0,0,0,0,0,0,0,0,0,0,0,0,0,0,0,0,0,0,0,0,0,0,0,0,0,0,0,0,0,0,0,0],"split_type":[0,0,0,0,0,0,0,0,0,0,0,0,0,0,0,0,0,0,0,0,0,0,0,0,0,0,0,0,0,0,0,0,0,0,0,0,0,0,0,0,0,0,0,0,0,0,0,0,0,0,0,0,0,0,0,0,0,0,0,0,0,0,0,0,0,0,0,0,0,0,0,0,0,0,0,0,0,0,0,0,0,0,0,0,0,0,0,0,0,0,0,0,0,0,0,0,0,0,0],"sum_hessian":[8.100795E2,7.3778546E2,7.22941E1,2.2571208E2,5.1207336E2,5.5137848E1,1.7156254E1,2.0498009E2,2.0732006E1,2.1413808E2,2.979353E2,4.784325E1,7.294598E0,1.2070582E1,5.0856714E0,1.6496182E2,4.0018253E1,1.9475367E1,1.2566385E0,1.3980481E2,7.433325E1,1.23258156E2,1.7467714E2,3.7225502E1,1.0617745E1,3.8555245E0,3.4390736E0,4.607495E0,7.463087E0,4.003963E0,1.0817084E0,1.5535654E2,9.605288E0,1.031112E1,2.9707132E1,1.3623118E1,5.852248E0,8.762872E1,5.217609E1,5.5120102E1,1.9213152E1,1.1372089E2,9.53727E0,1.6974486E2,4.9322834E0,3.3452103E1,3.7734003E0,5.4639E0,5.153846E0,1.1142552E0,2.7412694E0,1.617457E0,1.8216166E0,1.2120808E0,3.3954139E0,2.9648547E0,4.4982324E0,1.505537E2,4.802849E0,6.9009905E0,2.704297E0,3.4313211E0,6.879799E0,1.0808795E1,1.8898336E1,1.0318111E0,1.2591308E1,4.0599923E0,1.7922558E0,8.135734E1,6.271392E0,2.84419E1,2.373419E1,4.530068E1,9.819425E0,5.033514E0,1.4179637E1,1.04843315E2,8.87757E0,8.486147E0,1.0511223E0,6.3845906E0,1.6336026E2,3.9120505E0,1.0202329E0,1.3011904E1,2.0440199E1,1.8109415E0,1.9624588E0,1.414926E0,4.048974E0,1.0289457E0,4.1249E0,1.175901E0,2.2195127E0,1.8549649E0,1.10989E0,2.928474E0,1.5697585E0],"tree_param":{"num_deleted":"0","num_feature":"54","num_nodes":"99","size_leaf_vector":"1"}},{"base_weights":[-2.2281375E-2,1.9533742E-2,-4.981827E-1,-6.268081E-2,1.0775773E-1,-7.147231E-1,-3.064573E-1,-2.9906621E-2,-3.2286355E-1,3.6655933E-1,7.464928E-2,-7.705654E-1,-2.211175E-1,-9.456804E-2,-7.929613E-1,-7.272145E-2,2.2802752E-1,-7.659564E-1,-1.2384004E-1,2.7409965E-1,3.0136743E-1,1.7864604E-1,-2.4998657E-2,-5.7326967E-1,-2.7018854E-1,-2.0151772E-1,8.946371E-2,5.773798E-1,-2.1528964E-1,-2.750582E-1,-3.3817583E-1,-1.0383707E-1,4.0530747E-1,4.736566E-2,6.8927956E-1,-3.56575E-2,-8.840606E-1,-3.742723E-1,1.7127006E-1,4.0217668E-1,-1.3773699E-1,2.929306E-1,2.5026826E-3,-3.7222058E-1,5.2305855E-2,-7.5305015E-1,1.7607187E-1,3.466226E-1,-7.8458756E-2,-2.5518E-1,-2.0960003E-2,-1.8461391E-1,1.8316267E-2,-2.1631809E-2,-2.38225E-1,3.7454042E-1,6.663172E-2,-1.2535721E-1,6.484269E-2,1.1035718E-1,3.135019E-1,-3.1155458E-1,-1.3145703E-1,2.834333E-2,-2.2051945E-1,1.3241749E-1,-1.5778877E-1,5.2640047E-2,3.2863188E-1,-2.5687703E-1,3.150841E-2,1.1519947E-1,2.5521915E-2,-9.470917E-2,7.929905E-2,-2.0100148E-2,-2.1275814E-1,4.4054724E-2,-8.310951E-2,-2.715413E-1,-7.2567284E-2,2.1367936E-1,-1.5685552E-1,3.0351883E-1,-4.935861E-2],"categories":[],"categories_nodes":[],"categories_segments":[],"categories_sizes":[],"default_left":[0,0,0,0,0,0,0,0,0,0,0,0,0,0,0,0,0,0,0,0,0,0,0,0,0,0,0,0,0,0,0,0,0,0,0,0,0,0,0,0,0,0,0,0,0,0,0,0,0,0,0,0,0,0,0,0,0,0,0,0,0,0,0,0,0,0,0,0,0,0,0,0,0,0,0,0,0,0,0,0,0,0,0,0,0],"id":8,"left_children":[1,3,5,7,9,11,13,15,17,19,21,23,25,27,29,31,33,35,37,39,-1,41,43,45,-1,-1,-1,47,49,-1,51,53,55,57,59,-1,61,63,65,67,69,71,73,75,77,79,81,-1,-1,-1,83,-1,-1,-1,-1,-1,-1,-1,-1,-1,-1,-1,-1,-1,-1,-1,-1,-1,-1,-1,-1,-1,-1,-1,-1,-1,-1,-1,-1,-1,-1,-1,-1,-1,-1],"loss_changes":[1.5726858E1,5.2797637E0,2.430931E0,3.2046082E0,2.980548E0,6.351538E-1,3.5953708E0,3.7257485E0,3.614904E0,2.0582328E0,3.2427433E0,1.470747E-1,1.223567E0,2.2283704E0,2.9100227E-1,4.337965E0,3.9719484E0,8.766713E-1,2.2976286E0,1.9504492E0,0E0,3.079782E0,4.326376E0,1.8869209E0,0E0,0E0,0E0,2.3494372E0,2.7867084E0,0E0,4.6566385E-1,5.8992815E0,2.4806557E0,2.8860009E0,1.1536012E0,0E0,2.823515E-1,2.8873913E0,2.9742222E0,4.155078E0,1.7064744E0,1.7239904E0,5.1843634E0,2.9702773E0,4.1542563E0,6.122675E-1,1.6204469E0,0E0,0E0,0E0,2.8975286E0,0E0,0E0,0E0,0E0,0E0,0E0,0E0,0E0,0E0,0E0,0E0,0E0,0E0,0E0,0E0,0E0,0E0,0E0,0E0,0E0,0E0,0E0,0E0,0E0,0E0,0E0,0E0,0E0,0E0,0E0,0E0,0E0,0E0,0E0],"parents":[2147483647,0,0,1,1,2,2,3,3,4,4,5,5,6,6,7,7,8,8,9,9,10,10,11,11,12,12,13,13,14,14,15,15,16,16,17,17,18,18,19,19,21,21,22,22,23,23,27,27,28,28,30,30,31,31,32,32,33,33,34,34,36,36,37,37,38,38,39,39,40,40,41,41,42,42,43,43,44,44,45,45,46,46,50,50],"right_children":[2,4,6,8,10,12,14,16,18,20,22,24,26,28,30,32,34,36,38,40,-1,42,44,46,-1,-1,-1,48,50,-1,52,54,56,58,60,-1,62,64,66,68,70,72,74,76,78,80,82,-1,-1,-1,84,-1,-1,-1,-1,-1,-1,-1,-1,-1,-1,-1,-1,-1,-1,-1,-1,-1,-1,-1,-1,-1,-1,-1,-1,-1,-1,-1,-1,-1,-1,-1,-1,-1,-1],"split_conditions":[1E0,1E0,4.4598E3,5.5E1,8.025E1,1E0,7.2E1,1E0,5.2151E3,3.7813793E1,1E0,1.34575E3,6.4E1,7.859615E1,1E0,9.7060715E1,1E0,4.11E1,6.6E1,7.005E1,3.0136743E-1,1E0,5.515E1,1E0,-2.7018854E-1,-2.0151772E-1,8.946371E-2,6.8E1,9.34E1,-2.750582E-1,1E0,9.263125E1,4E0,1.5E1,2E0,-3.56575E-2,1E0,6E1,7.1E1,5.57E1,7.03E1,1E0,1E0,1E0,3.8382E3,5.3E1,2.525E1,3.466226E-1,-7.8458756E-2,-2.5518E-1,9.4472725E1,-1.8461391E-1,1.8316267E-2,-2.1631809E-2,-2.38225E-1,3.7454042E-1,6.663172E-2,-1.2535721E-1,6.484269E-2,1.1035718E-1,3.135019E-1,-3.1155458E-1,-1.3145703E-1,2.834333E-2,-2.2051945E-1,1.3241749E-1,-1.5778877E-1,5.2640047E-2,3.2863188E-1,-2.5687703E-1,3.150841E-2,1.1519947E-1,2.5521915E-2,-9.470917E-2,7.929905E-2,-2.0100148E-2,-2.1275814E-1,4.4054724E-2,-8.310951E-2,-2.715413E-1,-7.2567284E-2,2.1367936E-1,-1.5685552E-1,3.0351883E-1,-4.935861E-2],"split_indices":[3,32,53,46,53,32,46,36,53,0,9,53,46,0,43,0,33,16,46,16,0,17,16,19,0,0,0,46,16,0,23,0,52,46,52,0,26,46,46,16,16,49,37,12,53,46,16,0,0,0,0,0,0,0,0,0,0,0,0,0,0,0,0,0,0,0,0,0,0,0,0,0,0,0,0,0,0,0,0,0,0,0,0,0,0],"split_type":[0,0,0,0,0,0,0,0,0,0,0,0,0,0,0,0,0,0,0,0,0,0,0,0,0,0,0,0,0,0,0,0,0,0,0,0,0,0,0,0,0,0,0,0,0,0,0,0,0,0,0,0,0,0,0,0,0,0,0,0,0,0,0,0,0,0,0,0,0,0,0,0,0,0,0,0,0,0,0,0,0,0,0,0,0],"sum_hessian":[7.8881055E2,7.2598114E2,6.282945E1,3.75939E2,3.500421E2,2.8224268E1,3.4605183E1,3.3487152E2,4.106749E1,3.855949E1,3.1148264E2,2.4851671E1,3.372597E0,2.4938143E1,9.667038E0,2.8781482E2,4.70567E1,1.1845926E1,2.9221563E1,3.4927387E1,3.6321023E0,1.5202754E2,1.5945508E2,1.2022337E1,1.2829333E1,1.6486562E0,1.7239407E0,3.2219157E0,2.1716227E1,6.7987843E0,2.8682537E0,2.709604E2,1.6854435E1,3.4605293E1,1.2451411E1,2.1380177E0,9.707909E0,1.5662242E1,1.3559321E1,2.6659887E1,8.267499E0,9.180198E1,6.0225574E1,2.8341417E1,1.3111366E2,9.692083E0,2.3302538E0,1.6841915E0,1.5377244E0,4.2956414E0,1.7420586E1,1.3732952E0,1.4949585E0,2.6010754E2,1.085284E1,1.9705474E0,1.4883888E1,8.819381E0,2.5785912E1,7.609674E0,4.841737E0,6.2230034E0,3.4849057E0,7.1330094E0,8.529233E0,1.0037525E1,3.521796E0,2.1034363E1,5.625525E0,1.4496928E0,6.8178062E0,6.324523E1,2.8556744E1,2.7093273E1,3.31323E1,1.550043E1,1.2840988E1,1.0230032E2,2.8813341E1,6.8756013E0,2.8164818E0,1.3078352E0,1.0224186E0,1.3882074E0,1.603238E1],"tree_param":{"num_deleted":"0","num_feature":"54","num_nodes":"85","size_leaf_vector":"1"}},{"base_weights":[-1.8915107E-2,-2.3247367E-1,4.297836E-2,-6.7074424E-1,-1.5112907E-1,1.09608725E-1,-2.2082824E-2,-7.789371E-1,-3.7209788E-1,-9.473326E-2,-5.4406977E-1,2.2337757E-1,2.3368914E-2,1.2200709E-2,-3.257303E-1,-2.850258E-1,-5.039078E-1,2.7637678E-1,-7.6325417E-1,2.7319354E-1,-1.0989663E-1,-8.070855E-1,-1.19164266E-1,1.1611064E-1,6.0771203E-1,-1.2316187E-1,1.8633434E-1,-1.0659631E-2,7.6224935E-1,-5.356289E-2,-8.0937874E-1,-1.3161663E-2,-2.5592825E-1,-9.24962E-3,-2.6204342E-1,-2.410397E-1,3.927589E-2,-8.7743396E-1,-2.2114053E-2,1.1197045E-1,-2.1737796E-1,2.5554997E-1,-1.4122765E-1,-1.3446203E-1,6.73159E-1,-7.65236E-2,-9.9392074E-1,7.70046E-1,8.182761E-2,6.0523514E-2,-1.3845554E-1,-4.019688E-2,1.0049559E0,-3.488077E-1,1.393165E-1,-9.529377E-1,9.421843E-2,2.0984891E-1,-1.4088392E-1,-3.1196741E-2,-2.0153178E-1,2.522005E-2,-1.96532E-1,-2.8267404E-1,-8.6509265E-2,1.04484536E-1,-1.1460085E-1,2.6048869E-2,1.8777595E-1,1.9184856E-2,-2.0791827E-1,1.64354E-1,4.1557845E-1,-6.377719E-3,-2.4317183E-1,-3.5494405E-1,-1.1383172E-1,3.4374464E-1,8.785503E-2,4.029444E-2,-1.9550289E-1,3.2722633E-2,-8.8166066E-2,2.4122167E-3,-1.2367412E-1,3.5431534E-2,3.4954733E-1,9.674036E-2,-2.3967795E-1,-1.1420346E-1,-3.4360003E-1],"categories":[],"categories_nodes":[],"categories_segments":[],"categories_sizes":[],"default_left":[0,0,0,0,0,0,0,0,0,0,0,0,0,0,0,0,0,0,0,0,0,0,0,0,0,0,0,0,0,0,0,0,0,0,0,0,0,0,0,0,0,0,0,0,0,0,0,0,0,0,0,0,0,0,0,0,0,0,0,0,0,0,0,0,0,0,0,0,0,0,0,0,0,0,0,0,0,0,0,0,0,0,0,0,0,0,0,0,0,0,0],"id":9,"left_children":[1,3,5,7,9,11,13,15,17,19,21,23,25,27,29,-1,31,-1,33,-1,35,37,39,41,43,45,47,49,51,53,55,57,-1,-1,-1,59,61,63,-1,65,-1,67,69,-1,71,73,75,77,79,81,83,-1,85,-1,87,89,-1,-1,-1,-1,-1,-1,-1,-1,-1,-1,-1,-1,-1,-1,-1,-1,-1,-1,-1,-1,-1,-1,-1,-1,-1,-1,-1,-1,-1,-1,-1,-1,-1,-1,-1],"loss_changes":[1.0257751E1,6.1148415E0,2.611826E0,5.827389E-1,3.236099E0,2.914139E0,3.18306E0,4.1131115E-1,5.304987E0,2.0963757E0,1.9612031E0,5.2138276E0,4.091236E0,4.7296653E0,4.0396175E0,0E0,1.5966053E0,0E0,5.8104515E-1,0E0,2.5505967E0,5.130253E-1,1.230253E0,3.676332E0,2.218215E0,3.591463E0,4.881698E0,2.448249E0,1.9092755E0,4.6371903E0,2.0892525E0,1.9277489E0,0E0,0E0,0E0,4.019005E0,1.9718947E0,1.14886284E-1,0E0,9.2788005E-1,0E0,4.0793996E0,4.153842E0,0E0,1.6070423E0,3.504038E0,7.5203896E-2,1.8502898E0,2.7774363E0,3.008144E0,3.8639908E0,0E0,7.9119635E-1,0E0,3.4733195E0,6.7478657E-1,0E0,0E0,0E0,0E0,0E0,0E0,0E0,0E0,0E0,0E0,0E0,0E0,0E0,0E0,0E0,0E0,0E0,0E0,0E0,0E0,0E0,0E0,0E0,0E0,0E0,0E0,0E0,0E0,0E0,0E0,0E0,0E0,0E0,0E0,0E0],"parents":[2147483647,0,0,1,1,2,2,3,3,4,4,5,5,6,6,7,7,8,8,9,9,10,10,11,11,12,12,13,13,14,14,16,16,18,18,20,20,21,21,22,22,23,23,24,24,25,25,26,26,27,27,28,28,29,29,30,30,31,31,35,35,36,36,37,37,39,39,41,41,42,42,44,44,45,45,46,46,47,47,48,48,49,49,50,50,52,52,54,54,55,55],"right_children":[2,4,6,8,10,12,14,16,18,20,22,24,26,28,30,-1,32,-1,34,-1,36,38,40,42,44,46,48,50,52,54,56,58,-1,-1,-1,60,62,64,-1,66,-1,68,70,-1,72,74,76,78,80,82,84,-1,86,-1,88,90,-1,-1,-1,-1,-1,-1,-1,-1,-1,-1,-1,-1,-1,-1,-1,-1,-1,-1,-1,-1,-1,-1,-1,-1,-1,-1,-1,-1,-1,-1,-1,-1,-1,-1,-1],"split_conditions":[1E0,2.5772093E1,1E0,5.3E1,7.1E1,1.17705E3,8.4298485E1,1E0,5.7E1,2.7702898E1,1E0,1E0,9.012558E1,8.180556E1,2.7897E3,-2.850258E-1,1E0,2.7637678E-1,1.8905882E1,2.7319354E-1,4.7472E3,1.1363571E2,1E0,1E0,1E0,9.48E1,3E0,1E0,1E0,8.479737E1,6.1E1,3.956E2,-2.5592825E-1,-9.24962E-3,-2.6204342E-1,1E0,1E0,1E0,-2.2114053E-2,1E0,-2.1737796E-1,1E0,1E0,-1.3446203E-1,1.0726E3,1E0,1E0,3.6E1,1.0822464E2,1E0,4.852E2,-4.019688E-2,8.53E1,-3.488077E-1,1E0,1E0,9.421843E-2,2.0984891E-1,-1.4088392E-1,-3.1196741E-2,-2.0153178E-1,2.522005E-2,-1.96532E-1,-2.8267404E-1,-8.6509265E-2,1.04484536E-1,-1.1460085E-1,2.6048869E-2,1.8777595E-1,1.9184856E-2,-2.0791827E-1,1.64354E-1,4.1557845E-1,-6.377719E-3,-2.4317183E-1,-3.5494405E-1,-1.1383172E-1,3.4374464E-1,8.785503E-2,4.029444E-2,-1.9550289E-1,3.2722633E-2,-8.8166066E-2,2.4122167E-3,-1.2367412E-1,3.5431534E-2,3.4954733E-1,9.674036E-2,-2.3967795E-1,-1.1420346E-1,-3.4360003E-1],"split_indices":[1,0,17,46,46,53,0,9,46,0,23,36,0,0,53,0,4,0,0,0,53,0,28,26,4,16,52,13,43,0,46,53,0,0,0,30,33,28,0,2,0,39,22,0,53,33,28,46,0,31,53,0,16,0,40,43,0,0,0,0,0,0,0,0,0,0,0,0,0,0,0,0,0,0,0,0,0,0,0,0,0,0,0,0,0,0,0,0,0,0,0],"split_type":[0,0,0,0,0,0,0,0,0,0,0,0,0,0,0,0,0,0,0,0,0,0,0,0,0,0,0,0,0,0,0,0,0,0,0,0,0,0,0,0,0,0,0,0,0,0,0,0,0,0,0,0,0,0,0,0,0,0,0,0,0,0,0,0,0,0,0,0,0,0,0,0,0,0,0,0,0,0,0,0,0,0,0,0,0,0,0,0,0,0,0],"sum_hessian":[7.7429517E2,1.7336314E2,6.00932E2,2.6005318E1,1.4735783E2,2.9654752E2,3.043845E2,1.7909048E1,8.096271E0,1.2994841E2,1.7409424E1,1.2717981E2,1.6936769E2,2.7436676E2,3.0017754E1,9.526366E0,8.382681E0,1.5653259E0,6.5309443E0,1.0533369E0,1.2889507E2,1.019765E1,7.211774E0,1.00447296E2,2.6732517E1,8.930928E1,8.005842E1,2.6720844E2,7.158318E0,1.9919205E1,1.0098548E1,3.9163451E0,4.466336E0,1.021689E0,5.5092554E0,6.826497E1,6.06301E1,9.125821E0,1.0718288E0,5.809092E0,1.4026821E0,6.5151665E1,3.5295628E1,1.2188728E0,2.5513645E1,8.580158E1,3.507692E0,1.1189914E1,6.88685E1,1.7195486E2,9.525356E1,1.6208742E0,5.5374436E0,2.205969E0,1.7713236E1,9.088891E0,1.009657E0,1.3211563E0,2.5951889E0,5.272907E1,1.5535906E1,5.7781834E1,2.8482673E0,7.6811476E0,1.4446734E0,4.128839E0,1.6802527E0,4.5609085E1,1.9542583E1,2.6373724E1,8.921903E0,2.3200304E1,2.3133416E0,8.075102E1,5.0505614E0,1.9742842E0,1.533408E0,5.4763794E0,5.713535E0,6.503191E1,3.836589E0,1.5184528E2,2.0109589E1,6.2684113E1,3.2569447E1,1.113044E0,4.4244E0,1.5369344E1,2.3438926E0,3.036319E0,6.052572E0],"tree_param":{"num_deleted":"0","num_feature":"54","num_nodes":"91","size_leaf_vector":"1"}},{"base_weights":[-1.8002389E-2,9.8823765E-3,-3.8731405E-1,-6.78167E-1,1.5382301E-2,-5.969543E-1,-2.1029474E-1,3.6125917E-2,-2.8100637E-1,1.7836408E-1,-1.0063816E-2,-7.795426E-1,-3.8765436E-1,-4.6890765E-2,-6.872152E-1,6.422474E-2,3.8481736E-1,-6.708877E-2,5.8880415E-2,-8.459047E-1,-2.2932906E-2,-1.7761475E-1,-2.3615217E-1,-2.4833663E-1,3.245519E-1,-2.5214612E-1,-2.535465E-1,2.4203643E-1,-1.849127E-1,8.941845E-1,2.2886734E-1,-2.703838E-2,-3.1155232E-1,-4.877443E-2,1.3874842E-1,-3.7102762E-1,-2.754593E-1,-5.0995934E-1,2.1284358E-1,-5.0256526E-1,1.1821638E-1,-1.5182328E-1,7.039225E-1,-1.7113575E-1,4.0129658E-2,4.486777E-2,3.2181627E-1,-2.0187904E-1,7.595735E-4,3.165274E-1,3.6836874E-2,-1.25647085E-2,1.6174565E-1,1.5454129E-2,-7.9804644E-2,-2.098216E-1,-4.0165566E-2,-2.308037E-1,-4.885759E-3,4.699335E-2,-1.495067E-1,-1.6073705E-1,-4.1521587E-3,-2.3487413E-1,2.3356974E-2,2.1350121E-1,-7.662229E-2,-2.3519637E-1,1.4981815E-2,9.4073646E-2,-1.6739157E-1,6.313222E-2,-2.0119351E-1,4.0736943E-2,3.194915E-1],"categories":[],"categories_nodes":[],"categories_segments":[],"categories_sizes":[],"default_left":[0,0,0,0,0,0,0,0,0,0,0,0,0,0,0,0,0,0,0,0,0,0,0,0,0,0,0,0,0,0,0,0,0,0,0,0,0,0,0,0,0,0,0,0,0,0,0,0,0,0,0,0,0,0,0,0,0,0,0,0,0,0,0,0,0,0,0,0,0,0,0,0,0,0,0],"id":10,"left_children":[1,3,5,7,9,11,13,-1,-1,15,17,19,21,23,25,27,29,31,33,35,-1,37,-1,39,41,-1,43,45,47,49,51,53,55,57,59,61,-1,63,65,67,69,71,73,-1,-1,-1,-1,-1,-1,-1,-1,-1,-1,-1,-1,-1,-1,-1,-1,-1,-1,-1,-1,-1,-1,-1,-1,-1,-1,-1,-1,-1,-1,-1,-1],"loss_changes":[7.8201056E0,2.6846921E0,1.8527985E0,1.2743502E0,2.9134202E0,6.097145E-1,2.3405604E0,0E0,0E0,2.2106733E0,2.3951073E0,4.83819E-1,9.600601E-1,1.8577621E0,2.9848504E-1,2.8041515E0,2.4622722E0,3.2552676E0,2.3786407E0,2.4662971E-2,0E0,1.3909E0,0E0,1.547232E0,1.6945219E0,0E0,4.9876451E-1,2.6650472E0,2.426613E0,8.045392E-1,2.294847E0,5.410926E0,3.1332574E0,2.7552888E0,1.8866756E0,1.7408761E-1,0E0,9.6471167E-1,1.4078752E0,1.5345867E0,1.1456547E0,1.0277241E0,8.949218E-1,0E0,0E0,0E0,0E0,0E0,0E0,0E0,0E0,0E0,0E0,0E0,0E0,0E0,0E0,0E0,0E0,0E0,0E0,0E0,0E0,0E0,0E0,0E0,0E0,0E0,0E0,0E0,0E0,0E0,0E0,0E0,0E0],"parents":[2147483647,0,0,1,1,2,2,3,3,4,4,5,5,6,6,9,9,10,10,11,11,12,12,13,13,14,14,15,15,16,16,17,17,18,18,19,19,21,21,23,23,24,24,26,26,27,27,28,28,29,29,30,30,31,31,32,32,33,33,34,34,35,35,37,37,38,38,39,39,40,40,41,41,42,42],"right_children":[2,4,6,8,10,12,14,-1,-1,16,18,20,22,24,26,28,30,32,34,36,-1,38,-1,40,42,-1,44,46,48,50,52,54,56,58,60,62,-1,64,66,68,70,72,74,-1,-1,-1,-1,-1,-1,-1,-1,-1,-1,-1,-1,-1,-1,-1,-1,-1,-1,-1,-1,-1,-1,-1,-1,-1,-1,-1,-1,-1,-1,-1,-1],"split_conditions":[1E0,1.925E1,4.7472E3,1E0,2E0,1E0,7.2E1,3.6125917E-2,-2.8100637E-1,5.57E1,1E0,1E0,1E0,1E0,1E0,2.1653334E1,3.4975E1,8.107353E1,1E0,7.415E2,-2.2932906E-2,5.6E1,-2.3615217E-1,1E0,6.5E1,-2.5214612E-1,1.033E2,1E0,4.505E1,2E0,3.7813793E1,1E0,1E0,4E0,1.0605357E2,1.5E1,-2.754593E-1,1E0,6.5E1,1.065397E2,1E0,6.2E1,1E0,-1.7113575E-1,4.0129658E-2,4.486777E-2,3.2181627E-1,-2.0187904E-1,7.595735E-4,3.165274E-1,3.6836874E-2,-1.25647085E-2,1.6174565E-1,1.5454129E-2,-7.9804644E-2,-2.098216E-1,-4.0165566E-2,-2.308037E-1,-4.885759E-3,4.699335E-2,-1.495067E-1,-1.6073705E-1,-4.1521587E-3,-2.3487413E-1,2.3356974E-2,2.1350121E-1,-7.662229E-2,-2.3519637E-1,1.4981815E-2,9.4073646E-2,-1.6739157E-1,6.313222E-2,-2.0119351E-1,4.0736943E-2,3.194915E-1],"split_indices":[3,16,53,26,46,4,46,0,0,16,42,28,30,20,43,0,0,0,20,53,0,46,0,30,46,0,16,36,16,52,0,33,43,46,0,46,0,31,46,0,28,46,4,0,0,0,0,0,0,0,0,0,0,0,0,0,0,0,0,0,0,0,0,0,0,0,0,0,0,0,0,0,0,0,0],"split_type":[0,0,0,0,0,0,0,0,0,0,0,0,0,0,0,0,0,0,0,0,0,0,0,0,0,0,0,0,0,0,0,0,0,0,0,0,0,0,0,0,0,0,0,0,0,0,0,0,0,0,0,0,0,0,0,0,0,0,0,0,0,0,0,0,0,0,0,0,0,0,0,0,0,0,0],"sum_hessian":[7.579968E2,7.056874E2,5.230947E1,4.62629E0,7.010611E2,2.2862106E1,2.9447365E1,1.2620224E0,3.3642676E0,9.386277E1,6.071983E2,1.0755093E1,1.2107014E1,2.2750751E1,6.696613E0,6.1289482E1,3.2573288E1,3.323406E2,2.748577E2,9.641931E0,1.1131617E0,8.88203E0,3.224984E0,1.4965749E1,7.7850027E0,4.2547636E0,2.4418492E0,3.5780857E1,2.5508625E1,6.5255656E0,2.6047724E1,2.8651202E2,4.5828575E1,1.1723067E2,1.5762703E2,2.0841115E0,7.5578194E0,4.632745E0,4.2492847E0,8.617729E0,6.3480196E0,3.7171652E0,4.067837E0,1.0829276E0,1.3589216E0,3.325836E1,2.5224943E0,6.3600445E0,1.914858E1,5.095016E0,1.4305494E0,1.4371978E1,1.1675745E1,2.1622348E2,7.028856E1,1.3475193E1,3.2353382E1,4.079091E0,1.1315157E2,1.5405383E2,3.5731974E0,1.0840408E0,1.0000706E0,2.937024E0,1.6957204E0,1.8057618E0,2.4435227E0,5.431951E0,3.185778E0,5.3411303E0,1.0068893E0,2.5388303E0,1.178335E0,2.1153324E0,1.9525051E0],"tree_param":{"num_deleted":"0","num_feature":"54","num_nodes":"75","size_leaf_vector":"1"}},{"base_weights":[-1.5865708E-2,6.5495223E-3,-3.3610514E-1,4.3961283E-2,-7.298984E-2,-4.4553453E-1,-6.1449893E-2,1.4236562E-1,3.1921745E-3,-2.5701532E-1,-5.934735E-2,-3.4085664E-1,-7.7506167E-1,3.6653045E-1,-3.5144413E-1,8.493878E-2,6.286896E-1,-4.0011728E-1,2.0306427E-2,-8.064041E-2,3.2804114E-1,-5.6961673E-1,-1.350763E-1,-9.322972E-2,-2.5988513E-1,5.027959E-1,-4.758311E-2,9.522512E-2,-5.2690184E-1,1.09219454E-1,-2.8732732E-1,7.727712E-1,-1.2651613E-1,4.845707E-1,-6.6630954E-1,2.5031438E-1,1.4875961E-2,-4.1267857E-1,-1.9703709E-2,5.2783704E-1,-1.445311E-1,-3.364321E-1,-2.524672E-1,2.261404E-1,-2.8327405E-1,-3.5773415E-2,6.7150944E-1,-9.5353656E-2,1.4128982E-1,-6.861421E-1,-1.3737279E-1,9.0676494E-2,7.5407797E-3,3.1709248E-1,7.490553E-3,3.764055E-1,-9.612539E-2,-2.5005212E-1,-5.1872235E-2,-9.576922E-3,3.4143545E-2,-5.2939136E-2,-2.1918742E-1,1.0443267E-2,-6.704982E-2,-6.211024E-2,3.1501326E-1,-1.7526671E-1,1.1344778E-1,-2.3393339E-1,-2.4743665E-2,2.5292942E-1,3.113834E-2,-2.4090387E-1,-6.8981774E-2,1.055935E-1,-1.664094E-1],"categories":[],"categories_nodes":[],"categories_segments":[],"categories_sizes":[],"default_left":[0,0,0,0,0,0,0,0,0,0,0,0,0,0,0,0,0,0,0,0,0,0,0,0,0,0,0,0,0,0,0,0,0,0,0,0,0,0,0,0,0,0,0,0,0,0,0,0,0,0,0,0,0,0,0,0,0,0,0,0,0,0,0,0,0,0,0,0,0,0,0,0,0,0,0,0,0],"id":11,"left_children":[1,3,5,7,9,11,13,15,17,-1,19,21,23,25,27,29,31,33,35,37,39,41,43,-1,-1,45,-1,47,49,51,-1,53,-1,55,57,-1,59,61,63,65,-1,67,-1,-1,69,-1,71,-1,-1,73,75,-1,-1,-1,-1,-1,-1,-1,-1,-1,-1,-1,-1,-1,-1,-1,-1,-1,-1,-1,-1,-1,-1,-1,-1,-1,-1],"loss_changes":[5.3774424E0,2.0886436E0,1.4454689E0,1.9142327E0,2.3501804E0,9.39065E-1,2.005614E0,3.8504806E0,2.3443847E0,0E0,1.8559713E0,1.253293E0,5.3715706E-2,5.518415E-1,7.9662776E-1,3.2990718E0,2.5365353E0,3.578997E0,1.4272099E0,4.261943E0,2.1559367E0,5.457392E-1,2.3458567E0,0E0,0E0,6.549618E-1,0E0,6.980631E-1,3.3941114E-1,2.008357E0,0E0,2.778523E0,0E0,2.7434936E0,7.6742554E-1,0E0,1.506135E0,2.325088E0,2.0005157E0,4.018307E0,0E0,1.7619591E0,0E0,0E0,1.3913242E0,0E0,3.4694982E-1,0E0,0E0,6.660247E-2,8.648899E-1,0E0,0E0,0E0,0E0,0E0,0E0,0E0,0E0,0E0,0E0,0E0,0E0,0E0,0E0,0E0,0E0,0E0,0E0,0E0,0E0,0E0,0E0,0E0,0E0,0E0,0E0],"parents":[2147483647,0,0,1,1,2,2,3,3,4,4,5,5,6,6,7,7,8,8,10,10,11,11,12,12,13,13,14,14,15,15,16,16,17,17,18,18,19,19,20,20,21,21,22,22,25,25,27,27,28,28,29,29,31,31,33,33,34,34,36,36,37,37,38,38,39,39,41,41,44,44,46,46,49,49,50,50],"right_children":[2,4,6,8,10,12,14,16,18,-1,20,22,24,26,28,30,32,34,36,38,40,42,44,-1,-1,46,-1,48,50,52,-1,54,-1,56,58,-1,60,62,64,66,-1,68,-1,-1,70,-1,72,-1,-1,74,76,-1,-1,-1,-1,-1,-1,-1,-1,-1,-1,-1,-1,-1,-1,-1,-1,-1,-1,-1,-1,-1,-1,-1,-1,-1,-1],"split_conditions":[1E0,1E0,1.0355548E2,8E0,1.925E1,5E0,1.092E2,7.159028E1,2.965E1,-2.5701532E-1,5E0,4.81E1,7.955E1,7.2E1,6.2E1,6.94E1,1.003E2,1.98E1,2.7702898E1,1E0,1E0,6E1,5.45E1,-9.322972E-2,-2.5988513E-1,1.0585E2,-4.758311E-2,6.0969E3,1.1325E2,1E0,-2.8732732E-1,1E0,-1.2651613E-1,1E0,1E0,2.5031438E-1,9.59E1,1E0,1E0,1E0,-1.445311E-1,5.3E1,-2.524672E-1,2.261404E-1,4.4598E3,-3.5773415E-2,1.0605357E2,-9.5353656E-2,1.4128982E-1,1.0967789E2,7.99005E3,9.0676494E-2,7.5407797E-3,3.1709248E-1,7.490553E-3,3.764055E-1,-9.612539E-2,-2.5005212E-1,-5.1872235E-2,-9.576922E-3,3.4143545E-2,-5.2939136E-2,-2.1918742E-1,1.0443267E-2,-6.704982E-2,-6.211024E-2,3.1501326E-1,-1.7526671E-1,1.1344778E-1,-2.3393339E-1,-2.4743665E-2,2.5292942E-1,3.113834E-2,-2.4090387E-1,-6.8981774E-2,1.055935E-1,-1.664094E-1],"split_indices":[3,26,0,46,16,52,16,0,16,0,52,0,16,46,46,0,16,16,0,1,43,46,16,0,0,16,0,53,16,17,0,36,0,4,48,0,16,20,22,9,0,46,0,0,53,0,0,0,0,0,53,0,0,0,0,0,0,0,0,0,0,0,0,0,0,0,0,0,0,0,0,0,0,0,0,0,0],"split_type":[0,0,0,0,0,0,0,0,0,0,0,0,0,0,0,0,0,0,0,0,0,0,0,0,0,0,0,0,0,0,0,0,0,0,0,0,0,0,0,0,0,0,0,0,0,0,0,0,0,0,0,0,0,0,0,0,0,0,0,0,0,0,0,0,0,0,0,0,0,0,0,0,0,0,0,0,0],"sum_hessian":[7.478243E2,6.998198E2,4.8004494E1,4.7625708E2,2.2356273E2,3.3882652E1,1.41218405E1,1.3878351E2,3.3747357E2,2.7676935E0,2.2079504E2,2.7258177E1,6.6244764E0,5.5972958E0,8.524545E0,1.2517685E2,1.3606665E1,1.2826595E1,3.2464697E2,2.100418E2,1.075325E1,1.2071053E1,1.5187123E1,1.8114378E0,4.8130383E0,4.4779034E0,1.1193924E0,2.5331316E0,5.9914126E0,1.2320314E2,1.9737073E0,1.2197839E1,1.4088261E0,2.7769716E0,1.00496235E1,1.1397529E0,3.235072E2,3.1675085E1,1.783667E2,8.904531E0,1.8487194E0,7.703003E0,4.3680496E0,1.586282E0,1.36008415E1,1.0179545E0,3.459949E0,1.2800226E0,1.2531089E0,3.7123363E0,2.2790766E0,3.659504E1,8.66081E1,8.539099E0,3.6587403E0,1.1337256E0,1.6432459E0,6.9912252E0,3.0583982E0,2.2008096E2,1.0342625E2,1.9065546E1,1.2609539E1,1.4137784E2,3.6988865E1,3.9497795E0,4.9547505E0,5.855129E0,1.8478742E0,3.0861945E0,1.0514647E1,2.2844224E0,1.1755265E0,2.350079E0,1.3622572E0,1.121087E0,1.1579896E0],"tree_param":{"num_deleted":"0","num_feature":"54","num_nodes":"77","size_leaf_vector":"1"}},{"base_weights":[-1.3969082E-2,3.7176097E-3,-2.862292E-1,-7.252682E-2,3.780333E-2,-4.7909215E-1,-1.4369328E-1,-8.8663936E-2,6.898861E-1,4.8445772E-2,-5.9026927E-1,-6.8493277E-1,-2.7172926E-1,2.7231124E-1,-2.1871454E-1,-2.725007E-2,-3.2502887E-1,5.9948772E-2,2.857776E-1,4.0793717E-2,8.5167897E-1,-2.6831484E-1,-1.4333765E-1,-2.2154279E-1,-2.591342E-1,-8.076297E-2,-2.116901E-1,-1.0553736E-1,-5.817179E-1,-8.302919E-2,5.773527E-1,-7.804581E-2,-5.425337E-1,5.2065644E-2,-3.8608155E-1,7.399113E-2,2.9902416E-1,-5.7970303E-1,1.7742506E-1,-1.9580239E-1,1.4426312E-1,1.6180025E-1,-4.938967E-1,-3.0594024E-1,7.318187E-2,-2.2689743E-1,-5.9305247E-2,2.5622996E-3,-1.1297365E-1,-1.4354473E-1,2.4705912E-1,-1.5200977E-1,7.050286E-2,9.129946E-2,-1.9043744E-1,1.2044435E-2,1.6764581E-1,-1.61408E-1,1.22791894E-1,-2.0978938E-1,-4.6153612E-2,-7.378115E-2,3.108825E-1,-1.9049329E-1,-2.2408143E-2,1.000534E-2,-2.2218724E-1,7.5368166E-2,-1.9955248E-1],"categories":[],"categories_nodes":[],"categories_segments":[],"categories_sizes":[],"default_left":[0,0,0,0,0,0,0,0,0,0,0,0,0,0,0,0,0,0,0,0,0,0,0,0,0,0,0,0,0,0,0,0,0,0,0,0,0,0,0,0,0,0,0,0,0,0,0,0,0,0,0,0,0,0,0,0,0,0,0,0,0,0,0,0,0,0,0,0,0],"id":12,"left_children":[1,3,5,7,9,11,13,15,17,19,21,23,25,-1,27,29,31,-1,-1,33,35,-1,37,39,-1,41,-1,43,45,47,49,51,53,55,57,-1,-1,59,-1,-1,-1,61,63,65,67,-1,-1,-1,-1,-1,-1,-1,-1,-1,-1,-1,-1,-1,-1,-1,-1,-1,-1,-1,-1,-1,-1,-1,-1],"loss_changes":[3.5589068E0,1.8083353E0,1.1704712E0,2.7061725E0,3.2422462E0,6.1336946E-1,2.355977E0,3.0600772E0,3.9798045E-1,2.8767643E0,9.709363E-1,5.3315115E-1,8.535181E-1,0E0,1.020594E0,5.7441316E0,2.295065E0,0E0,0E0,2.2829256E0,1.4210057E-1,0E0,1.7745309E0,1.4584014E0,0E0,9.577071E-1,0E0,7.8520596E-1,2.553556E-1,4.1834655E0,4.1349354E0,3.009956E0,1.9876842E0,2.749928E0,1.6967415E0,0E0,0E0,6.081927E-2,0E0,0E0,0E0,2.4912832E0,1.5880734E-1,1.533925E0,1.7532113E0,0E0,0E0,0E0,0E0,0E0,0E0,0E0,0E0,0E0,0E0,0E0,0E0,0E0,0E0,0E0,0E0,0E0,0E0,0E0,0E0,0E0,0E0,0E0,0E0],"parents":[2147483647,0,0,1,1,2,2,3,3,4,4,5,5,6,6,7,7,8,8,9,9,10,10,11,11,12,12,14,14,15,15,16,16,19,19,20,20,22,22,23,23,25,25,27,27,28,28,29,29,30,30,31,31,32,32,33,33,34,34,37,37,41,41,42,42,43,43,44,44],"right_children":[2,4,6,8,10,12,14,16,18,20,22,24,26,-1,28,30,32,-1,-1,34,36,-1,38,40,-1,42,-1,44,46,48,50,52,54,56,58,-1,-1,60,-1,-1,-1,62,64,66,68,-1,-1,-1,-1,-1,-1,-1,-1,-1,-1,-1,-1,-1,-1,-1,-1,-1,-1,-1,-1,-1,-1,-1,-1],"split_conditions":[1E0,1E0,4.7472E3,7.41225E3,1.065E2,1E0,4.8543E3,4.4E1,1.1101806E2,1.0559672E2,1E0,1.0581E3,1E0,2.7231124E-1,7.2E1,3.8E1,1E0,5.9948772E-2,2.857776E-1,6.3109E3,1.0525E2,-2.6831484E-1,1.0845E2,3.1E1,-2.591342E-1,5.45E1,-2.116901E-1,6.6E1,1E0,2.3E1,6.0083332E1,5.0432E3,2.3479E3,5.7334E3,1E0,7.399113E-2,2.9902416E-1,5.7E1,1.7742506E-1,-1.9580239E-1,1.4426312E-1,4.775476E1,1E0,6.2E1,1E0,-2.2689743E-1,-5.9305247E-2,2.5622996E-3,-1.1297365E-1,-1.4354473E-1,2.4705912E-1,-1.5200977E-1,7.050286E-2,9.129946E-2,-1.9043744E-1,1.2044435E-2,1.6764581E-1,-1.61408E-1,1.22791894E-1,-2.0978938E-1,-4.6153612E-2,-7.378115E-2,3.108825E-1,-1.9049329E-1,-2.2408143E-2,1.000534E-2,-2.2218724E-1,7.5368166E-2,-1.9955248E-1],"split_indices":[3,43,53,53,16,4,53,46,0,0,32,53,30,0,46,46,9,0,0,53,16,0,16,46,0,16,0,46,43,46,0,53,53,53,26,0,0,46,0,0,0,0,37,46,17,0,0,0,0,0,0,0,0,0,0,0,0,0,0,0,0,0,0,0,0,0,0,0,0],"split_type":[0,0,0,0,0,0,0,0,0,0,0,0,0,0,0,0,0,0,0,0,0,0,0,0,0,0,0,0,0,0,0,0,0,0,0,0,0,0,0,0,0,0,0,0,0,0,0,0,0,0,0,0,0,0,0,0,0,0,0,0,0,0,0,0,0,0,0,0,0],"sum_hessian":[7.378498E2,6.937673E2,4.40825E1,2.1398608E2,4.7978122E2,1.773048E1,2.6352018E1,2.1041615E2,3.5699291E0,4.7269446E2,7.086754E0,7.7421265E0,9.988354E0,1.0158557E0,2.5336163E1,1.6790521E2,4.2510933E1,1.8603157E0,1.7096133E0,4.6927466E2,3.4197886E0,3.6214108E0,3.465343E0,2.7794282E0,4.962698E0,7.759458E0,2.228896E0,2.0298296E1,5.037868E0,1.5451292E2,1.3392298E1,2.0542805E1,2.1968128E1,4.5805737E2,1.1217282E1,1.1835701E0,2.2362185E0,2.306534E0,1.158809E0,1.7661928E0,1.0132354E0,5.2722945E0,2.4871638E0,9.233106E0,1.1065189E1,2.7968254E0,2.2410426E0,1.18514336E2,3.599858E1,2.353725E0,1.1038572E1,8.409489E0,1.2133316E1,1.9322886E0,2.003584E1,4.48587E2,9.470374E0,9.689783E0,1.5274994E0,1.2994989E0,1.0070351E0,4.0859275E0,1.1863669E0,1.4757727E0,1.011391E0,5.7040772E0,3.5290287E0,9.446931E0,1.6182587E0],"tree_param":{"num_deleted":"0","num_feature":"54","num_nodes":"69","size_leaf_vector":"1"}},{"base_weights":[-1.2277536E-2,-3.050829E-3,-4.324027E-1,-4.911088E-1,1.9286042E-3,-6.6592157E-1,2.9284216E-2,2.7622484E-2,-2.5072724E-1,1.08785525E-1,-1.4525848E-2,-1.8202996E-2,-2.2841552E-1,4.8423195E-1,-3.48146E-1,6.0828216E-2,-3.521807E-2,4.1403975E-2,6.6952324E-1,-2.8767428E-1,-2.3479774E-3,1.7302468E-1,4.9163073E-2,-2.0984541E-1,6.1447356E-2,3.7751654E-1,-1.8373936E-2,2.7046144E-1,1.0677643E0,-4.5646584E-1,3.1539378E-1,2.5000632E-1,-6.7919944E-3,1.5266837E-1,-1.5377513E-1,-3.0318337E-2,6.251364E-2,-8.114915E-2,1.363366E-1,3.9599532E-1,1.4933002E-1,1.4497775E-1,-1.6628253E-1,-2.1967357E-1,2.7740958E-1,-1.9142507E-1,-5.358266E-4],"categories":[],"categories_nodes":[],"categories_segments":[],"categories_sizes":[],"default_left":[0,0,0,0,0,0,0,0,0,0,0,0,0,0,0,0,0,0,0,0,0,0,0,0,0,0,0,0,0,0,0,0,0,0,0,0,0,0,0,0,0,0,0,0,0,0,0],"id":13,"left_children":[1,3,5,7,9,11,13,15,-1,17,19,-1,-1,21,23,-1,-1,25,27,29,31,-1,-1,-1,-1,33,35,37,39,41,43,-1,45,-1,-1,-1,-1,-1,-1,-1,-1,-1,-1,-1,-1,-1,-1],"loss_changes":[2.8380005E0,1.7452238E0,1.7157736E0,1.3197196E0,1.2525595E0,5.5994606E-1,1.2405326E0,1.2191901E-1,0E0,3.5638437E0,2.053108E0,0E0,0E0,1.7772913E-3,9.1918826E-1,0E0,0E0,1.7333593E0,1.3213058E0,2.825576E0,2.204578E0,0E0,0E0,0E0,0E0,1.7835008E0,1.4067369E0,7.599062E-1,2.3200035E-2,2.197268E0,4.7319736E0,0E0,1.8631859E0,0E0,0E0,0E0,0E0,0E0,0E0,0E0,0E0,0E0,0E0,0E0,0E0,0E0,0E0],"parents":[2147483647,0,0,1,1,2,2,3,3,4,4,5,5,6,6,7,7,9,9,10,10,13,13,14,14,17,17,18,18,19,19,20,20,25,25,26,26,27,27,28,28,29,29,30,30,32,32],"right_children":[2,4,6,8,10,12,14,16,-1,18,20,-1,-1,22,24,-1,-1,26,28,30,32,-1,-1,-1,-1,34,36,38,40,42,44,-1,46,-1,-1,-1,-1,-1,-1,-1,-1,-1,-1,-1,-1,-1,-1],"split_conditions":[7.1E1,1.935E1,1.0453E2,9.725E0,8.025E1,1E0,7.7467E3,1.915E1,-2.5072724E-1,7.44E1,2.0433332E1,-1.8202996E-2,-2.2841552E-1,5E0,1.1101806E2,6.0828216E-2,-3.521807E-2,1E0,1E0,1E0,2.02E1,1.7302468E-1,4.9163073E-2,-2.0984541E-1,6.1447356E-2,1E0,2.5116667E1,1E0,7.54E1,1.945E1,1E0,2.5000632E-1,2.1653334E1,1.5266837E-1,-1.5377513E-1,-3.0318337E-2,6.251364E-2,-8.114915E-2,1.363366E-1,3.9599532E-1,1.4933002E-1,1.4497775E-1,-1.6628253E-1,-2.1967357E-1,2.7740958E-1,-1.9142507E-1,-5.358266E-4],"split_indices":[46,16,0,0,53,12,53,16,0,53,0,0,0,52,0,0,0,28,9,30,16,0,0,0,0,22,0,6,16,16,26,0,0,0,0,0,0,0,0,0,0,0,0,0,0,0,0],"split_type":[0,0,0,0,0,0,0,0,0,0,0,0,0,0,0,0,0,0,0,0,0,0,0,0,0,0,0,0,0,0,0,0,0,0,0,0,0,0,0,0,0,0,0,0,0,0,0],"sum_hessian":[7.3146844E2,7.1673486E2,1.4733529E1,6.252678E0,7.1048224E2,9.490777E0,5.2427516E0,2.8631694E0,3.3895085E0,9.405673E1,6.164255E2,1.5158411E0,7.974936E0,2.2489438E0,2.993808E0,1.1165268E0,1.7466426E0,8.492543E1,9.131302E0,2.5343803E1,5.9108167E2,1.1239961E0,1.1249477E0,1.6686476E0,1.3251603E0,1.2020815E1,7.290461E1,5.3996563E0,3.7316453E0,1.9991512E1,5.352292E0,2.1399446E0,5.889417E2,1.084794E1,1.1728743E0,5.382955E1,1.9075062E1,1.2511171E0,4.1485395E0,1.6747903E0,2.056855E0,1.5131115E0,1.8478401E1,1.8939909E0,3.458301E0,3.6384072E0,5.8530334E2],"tree_param":{"num_deleted":"0","num_feature":"54","num_nodes":"47","size_leaf_vector":"1"}},{"base_weights":[-9.084068E-3,9.54389E-3,-1.7628093E-1,-1.5568086E-2,1.0528575E-1,-4.456953E-1,-4.6977792E-2,-2.272865E-2,5.0547E-1,5.602376E-1,6.315849E-2,-1.972547E-1,-3.0235675E-1,-6.115372E-1,5.311908E-2,-2.8345786E-4,-1.60144E-1,3.6485425E-1,6.8253815E-2,7.84848E-1,-1.447676E-1,-2.7969578E-1,8.308349E-2,-4.5083433E-1,2.3298864E-1,-2.533481E-1,-3.2492682E-2,1.0111885E0,-5.829446E-2,-2.5720831E-2,2.0593534E-1,-4.3259826E-1,-3.2863174E-2,-2.2633599E-1,4.963647E-1,9.8638564E-1,-2.783418E-2,-1.196779E-1,7.2357096E-2,1.0038496E-2,2.7303413E-1,2.0694755E-1,-6.6007876E-1,6.5007013E-1,-2.2862723E-1,8.198376E-2,-8.734872E-2,4.7875336E-1,3.3927226E-1,-2.3771243E-1,4.5432437E-2,1.1499042E-3,-8.826746E-2,2.3998657E-1,3.4212716E-2,-3.5982355E-2,-2.4234863E-1,1.17987595E-1,-4.9370024E-2,2.4172464E-2,2.2704011E-1,3.41065E-1,3.8656976E-2,1.916536E-2,-2.4509497E-1,3.9163607E-1,4.5905992E-2,-1.0003518E-1,2.2948577E-1,-4.0004466E-2,-2.1352322E-1,-3.056511E-2,3.0947345E-1,-6.2497094E-2,2.3989618E-1,2.3460534E-1,-5.2434364E-3],"categories":[],"categories_nodes":[],"categories_segments":[],"categories_sizes":[],"default_left":[0,0,0,0,0,0,0,0,0,0,0,0,0,0,0,0,0,0,0,0,0,0,0,0,0,0,0,0,0,0,0,0,0,0,0,0,0,0,0,0,0,0,0,0,0,0,0,0,0,0,0,0,0,0,0,0,0,0,0,0,0,0,0,0,0,0,0,0,0,0,0,0,0,0,0,0,0],"id":14,"left_children":[1,3,5,7,9,11,13,15,17,19,21,23,-1,25,27,29,31,-1,33,35,37,-1,39,41,43,-1,45,47,49,51,53,55,57,-1,59,61,-1,-1,-1,63,65,67,69,71,-1,-1,-1,-1,73,-1,75,-1,-1,-1,-1,-1,-1,-1,-1,-1,-1,-1,-1,-1,-1,-1,-1,-1,-1,-1,-1,-1,-1,-1,-1,-1,-1],"loss_changes":[2.2674587E0,1.5776519E0,2.5213268E0,1.9522095E0,2.5775995E0,3.0900922E0,2.8822656E0,1.585528E0,2.1215796E0,1.9231505E0,2.5748298E0,2.022448E0,0E0,1.0077922E0,4.729396E0,2.328599E0,2.4887543E0,0E0,2.2947364E0,1.6519113E0,4.4987696E-1,0E0,1.7226837E0,1.7054188E0,3.473837E0,0E0,3.3597305E-1,1.270606E0,3.092563E0,3.136813E0,2.5695403E0,2.5896883E0,2.886586E0,0E0,3.9264905E-1,7.9050875E-1,0E0,0E0,0E0,4.098125E0,4.075032E0,1.3141319E0,1.4691377E-1,1.7106135E0,0E0,0E0,0E0,0E0,1.0278124E0,0E0,1.6873327E0,0E0,0E0,0E0,0E0,0E0,0E0,0E0,0E0,0E0,0E0,0E0,0E0,0E0,0E0,0E0,0E0,0E0,0E0,0E0,0E0,0E0,0E0,0E0,0E0,0E0,0E0],"parents":[2147483647,0,0,1,1,2,2,3,3,4,4,5,5,6,6,7,7,8,8,9,9,10,10,11,11,13,13,14,14,15,15,16,16,18,18,19,19,20,20,22,22,23,23,24,24,26,26,27,27,28,28,29,29,30,30,31,31,32,32,34,34,35,35,39,39,40,40,41,41,42,42,43,43,48,48,50,50],"right_children":[2,4,6,8,10,12,14,16,18,20,22,24,-1,26,28,30,32,-1,34,36,38,-1,40,42,44,-1,46,48,50,52,54,56,58,-1,60,62,-1,-1,-1,64,66,68,70,72,-1,-1,-1,-1,74,-1,76,-1,-1,-1,-1,-1,-1,-1,-1,-1,-1,-1,-1,-1,-1,-1,-1,-1,-1,-1,-1,-1,-1,-1,-1,-1,-1],"split_conditions":[6E1,1E0,6.5E1,5.8694E3,4.375E1,1E0,6.6683334E1,3.28305E3,1.048E2,2.8E1,4.445E1,1E0,-3.0235675E-1,1E0,5.41165E3,2.30955E3,3.9306E3,3.6485425E-1,5E0,1E0,3.43125E1,-2.7969578E-1,3.7E1,1E0,1E0,-2.533481E-1,3.5336E3,6.7E1,8.7015625E1,2.6E1,2.39505E3,1E0,4.2848E3,-2.2633599E-1,1E0,1E0,-2.783418E-2,-1.196779E-1,7.2357096E-2,3.4E1,2.8799E3,8.62975E1,7.350116E1,1E0,-2.2862723E-1,8.198376E-2,-8.734872E-2,4.7875336E-1,7.4755E1,-2.3771243E-1,8.9171875E1,1.1499042E-3,-8.826746E-2,2.3998657E-1,3.4212716E-2,-3.5982355E-2,-2.4234863E-1,1.17987595E-1,-4.9370024E-2,2.4172464E-2,2.2704011E-1,3.41065E-1,3.8656976E-2,1.916536E-2,-2.4509497E-1,3.9163607E-1,4.5905992E-2,-1.0003518E-1,2.2948577E-1,-4.0004466E-2,-2.1352322E-1,-3.056511E-2,3.0947345E-1,-6.2497094E-2,2.3989618E-1,2.3460534E-1,-5.2434364E-3],"split_indices":[46,36,46,53,16,30,0,53,16,46,16,28,0,32,53,53,53,0,52,8,0,0,46,39,26,0,53,46,0,46,53,6,53,0,32,30,0,0,0,46,53,0,0,23,0,0,0,0,0,0,0,0,0,0,0,0,0,0,0,0,0,0,0,0,0,0,0,0,0,0,0,0,0,0,0,0,0],"split_type":[0,0,0,0,0,0,0,0,0,0,0,0,0,0,0,0,0,0,0,0,0,0,0,0,0,0,0,0,0,0,0,0,0,0,0,0,0,0,0,0,0,0,0,0,0,0,0,0,0,0,0,0,0,0,0,0,0,0,0,0,0,0,0,0,0,0,0,0,0,0,0,0,0,0,0,0,0],"sum_hessian":[7.264843E2,6.545065E2,7.197783E1,5.191713E2,1.3533519E2,2.2548714E1,4.9429115E1,5.1307654E2,6.094772E0,1.0427298E1,1.249079E2,1.6574627E1,5.974086E0,6.6745157E0,4.2754597E1,4.4189948E2,7.1177055E1,1.6427596E0,4.452012E0,7.822003E0,2.6052942E0,1.552483E0,1.23355415E2,1.0398206E1,6.1764216E0,4.4327445E0,2.2417715E0,3.6126487E0,3.914195E1,3.9415518E2,4.774431E1,2.1899897E1,4.9277153E1,1.2628636E0,3.1891484E0,6.2604403E0,1.5615624E0,1.550601E0,1.0546932E0,8.9854836E1,3.3500576E1,2.5121074E0,7.886098E0,4.5965295E0,1.5798922E0,1.0014658E0,1.2403057E0,1.1964843E0,2.4161644E0,4.024106E0,3.5117844E1,3.5596082E2,3.819436E1,5.364098E0,4.238021E1,1.2665851E1,9.234047E0,1.1164814E1,3.8112343E1,1.7325264E0,1.456622E0,5.0486317E0,1.2118088E0,8.52285E1,4.6263347E0,2.4601026E0,3.1040476E1,1.4806248E0,1.0314826E0,1.0243009E0,6.861797E0,1.7938296E0,2.8026998E0,1.3536172E0,1.0625472E0,1.8638946E0,3.325395E1],"tree_param":{"num_deleted":"0","num_feature":"54","num_nodes":"77","size_leaf_vector":"1"}},{"base_weights":[-7.1239094E-3,-7.686184E-4,-3.3515117E-1,-5.2427757E-1,2.6699465E-3,-5.564773E-1,3.1546596E-2,1.0822369E-2,-2.3280862E-1,2.9028678E-1,-4.1459505E-3,-2.4831446E-1,-1.709845E-1,1.96887E-1,-2.2128536E-1,-1.127054E-2,6.82139E-1,-5.310821E-1,1.116425E-3,-2.1114306E-1,3.1138617E-1,-4.223784E-1,7.464766E-2,1.468776E-1,-1.1998078E-1,4.0743157E-1,2.7730438E-1,8.315596E-2,-9.1678596E-1,5.393744E-1,-3.4923186E-3,-3.4405936E-2,1.7507726E-1,1.0712293E-2,-1.960869E-1,-1.5430178E-2,1.3310951E-1,2.6545337E-1,-6.043888E-2,-3.3527538E-1,-1.0406974E-1,-5.3434916E-2,2.2096018E-1,-1.6942075E-1,8.04459E-5],"categories":[],"categories_nodes":[],"categories_segments":[],"categories_sizes":[],"default_left":[0,0,0,0,0,0,0,0,0,0,0,0,0,0,0,0,0,0,0,0,0,0,0,0,0,0,0,0,0,0,0,0,0,0,0,0,0,0,0,0,0,0,0,0,0],"id":15,"left_children":[1,3,5,7,9,11,13,-1,-1,15,17,-1,19,-1,21,23,25,27,29,-1,31,33,-1,35,-1,37,-1,-1,39,41,43,-1,-1,-1,-1,-1,-1,-1,-1,-1,-1,-1,-1,-1,-1],"loss_changes":[1.5047407E0,1.2780517E0,1.1309536E0,6.815597E-1,1.3843817E0,7.586007E-1,1.1103157E0,0E0,0E0,1.9394073E0,1.9145384E0,0E0,1.4569255E0,0E0,5.869919E-1,6.870471E-1,9.750724E-2,2.3824615E0,1.6996614E0,0E0,4.4048393E-1,4.408062E-1,0E0,4.9354404E-1,0E0,1.6686585E0,0E0,0E0,1.6773891E-1,9.540218E-1,1.4344318E0,0E0,0E0,0E0,0E0,0E0,0E0,0E0,0E0,0E0,0E0,0E0,0E0,0E0,0E0],"parents":[2147483647,0,0,1,1,2,2,3,3,4,4,5,5,6,6,9,9,10,10,12,12,14,14,15,15,16,16,17,17,18,18,20,20,21,21,23,23,25,25,28,28,29,29,30,30],"right_children":[2,4,6,8,10,12,14,-1,-1,16,18,-1,20,-1,22,24,26,28,30,-1,32,34,-1,36,-1,38,-1,-1,40,42,44,-1,-1,-1,-1,-1,-1,-1,-1,-1,-1,-1,-1,-1,-1],"split_conditions":[7.1E1,1.925E1,1.0453E2,1E0,1.01E1,1E0,1.065E2,1.0822369E-2,-2.3280862E-1,1.99E1,1.025E1,-2.4831446E-1,1E0,1.96887E-1,1E0,1.975E1,2.01E1,2.025E1,2.44E1,-2.1114306E-1,1E0,1.0712E2,7.464766E-2,1.96E1,-1.1998078E-1,2E1,2.7730438E-1,8.315596E-2,1E0,1E0,1.2375E1,-3.4405936E-2,1.7507726E-1,1.0712293E-2,-1.960869E-1,-1.5430178E-2,1.3310951E-1,2.6545337E-1,-6.043888E-2,-3.3527538E-1,-1.0406974E-1,-5.3434916E-2,2.2096018E-1,-1.6942075E-1,8.04459E-5],"split_indices":[46,16,0,26,0,23,16,0,0,16,0,0,3,0,2,16,16,16,53,0,32,0,0,16,0,16,0,0,9,33,0,0,0,0,0,0,0,0,0,0,0,0,0,0,0],"split_type":[0,0,0,0,0,0,0,0,0,0,0,0,0,0,0,0,0,0,0,0,0,0,0,0,0,0,0,0,0,0,0,0,0,0,0,0,0,0,0,0,0,0,0,0,0],"sum_hessian":[7.209226E2,7.08204E2,1.2718596E1,3.6329358E0,7.0457104E2,7.6087065E0,5.1098905E0,1.391784E0,2.2411518E0,1.5347521E1,6.892235E2,3.7928505E0,3.815856E0,1.0124322E0,4.097458E0,9.221883E0,6.1256385E0,5.827024E0,6.833965E2,1.5949798E0,2.2208762E0,2.9409723E0,1.1564858E0,6.9969273E0,2.2249558E0,4.127022E0,1.9986169E0,1.9732643E0,3.8537598E0,4.8167133E0,6.785798E2,1.0913303E0,1.129546E0,1.2702479E0,1.6707243E0,4.6901E0,2.306827E0,2.0592427E0,2.0677788E0,2.1390166E0,1.714743E0,1.0590978E0,3.7576158E0,3.5235233E0,6.750563E2],"tree_param":{"num_deleted":"0","num_feature":"54","num_nodes":"45","size_leaf_vector":"1"}},{"base_weights":[-5.9137656E-3,-6.572437E-2,2.1816745E-2,-5.176216E-2,-5.2668285E-1,7.117561E-2,-4.271879E-2,1.8638714E-1,-7.26349E-2,-2.3358281E-1,-9.863794E-2,1.1987877E-1,-9.714979E-2,2.8486526E-2,-1.7421629E-1,-4.0110216E-2,5.314874E-1,-2.2640619E-1,-6.070055E-2,7.678559E-2,-1.06795564E-1,2.1066022E-1,-7.5210193E-3,4.2295415E-2,-3.7672547E-1,-4.117911E-2,1.0727406E0,-9.025081E-1,-1.0195298E-1,-3.2969275E-1,8.323616E-2,7.0502764E-1,1.417344E-1,-1.3565694E-1,1.0198356E-2,3.5914683E-1,-1.1772846E-2,-8.324006E-2,2.3685393E-1,6.1131966E-1,-8.589054E-2,-7.0666033E-1,1.5026301E-1,-6.243266E-2,5.665677E-1,1.2805252E0,-3.4708194E-2,-1.179036E0,-4.7697715E-2,6.371777E-1,-1.4447507E-1,-2.4348176E-1,9.048857E-2,7.394798E-2,-3.8259406E-2,2.905825E-1,1.0576766E-1,2.851203E-1,-1.7343877E-1,-1.4554088E-1,-2.4192635E-2,4.179627E-2,-8.433687E-2,6.0933724E-2,2.4397855E-1,-2.9598555E-1,1.2706749E-2,-2.1191694E-1,-6.6809123E-3,-1.1340664E-1,1.5759559E-1,4.157637E-2,2.9310134E-1,6.060975E-2,-1.1106888E-1,-3.0861333E-2,-2.498202E-1,1.899151E-1,-1.591824E-1,2.2836637E-3,-8.742815E-2,4.6876737E-1,-2.1192081E-1,8.2070075E-2,4.2143875E-1,-7.648224E-2,-4.0967873E-1,-1.615902E-1,5.0860065E-1,1.3705318E-1,-6.2131066E-2],"categories":[],"categories_nodes":[],"categories_segments":[],"categories_sizes":[],"default_left":[0,0,0,0,0,0,0,0,0,0,0,0,0,0,0,0,0,0,0,0,0,0,0,0,0,0,0,0,0,0,0,0,0,0,0,0,0,0,0,0,0,0,0,0,0,0,0,0,0,0,0,0,0,0,0,0,0,0,0,0,0,0,0,0,0,0,0,0,0,0,0,0,0,0,0,0,0,0,0,0,0,0,0,0,0,0,0,0,0,0,0],"id":16,"left_children":[1,3,5,7,9,11,13,15,17,-1,19,21,23,25,27,29,31,-1,33,-1,-1,35,37,39,41,43,45,47,49,51,53,55,57,59,61,63,65,67,69,71,73,75,77,79,81,83,-1,85,-1,87,89,-1,-1,-1,-1,-1,-1,-1,-1,-1,-1,-1,-1,-1,-1,-1,-1,-1,-1,-1,-1,-1,-1,-1,-1,-1,-1,-1,-1,-1,-1,-1,-1,-1,-1,-1,-1,-1,-1,-1,-1],"loss_changes":[1.196239E0,1.4430072E0,1.5732341E0,1.1212249E0,6.3567746E-1,2.3044934E0,2.0110526E0,1.4468238E0,1.6277446E0,0E0,4.189815E-1,2.5155675E0,2.4843416E0,1.0217905E1,3.876306E0,4.5394605E-1,3.9361072E-1,0E0,1.0809994E0,0E0,0E0,4.197493E0,1.711129E0,3.1994913E0,3.787362E0,1.7412212E0,2.3170557E0,1.185749E0,2.2834115E0,1.3912922E0,3.4704435E-1,1.0418224E-1,2.5866842E0,1.8608487E0,4.001341E0,5.2318163E0,2.7747428E0,2.6638005E0,4.0799756E0,1.2571611E0,3.0293067E0,9.1880465E-1,3.2865415E0,2.063391E0,6.8873434E0,5.615835E-1,0E0,4.6427393E-1,0E0,5.8623066E0,2.6082234E0,0E0,0E0,0E0,0E0,0E0,0E0,0E0,0E0,0E0,0E0,0E0,0E0,0E0,0E0,0E0,0E0,0E0,0E0,0E0,0E0,0E0,0E0,0E0,0E0,0E0,0E0,0E0,0E0,0E0,0E0,0E0,0E0,0E0,0E0,0E0,0E0,0E0,0E0,0E0,0E0],"parents":[2147483647,0,0,1,1,2,2,3,3,4,4,5,5,6,6,7,7,8,8,10,10,11,11,12,12,13,13,14,14,15,15,16,16,18,18,21,21,22,22,23,23,24,24,25,25,26,26,27,27,28,28,29,29,30,30,31,31,32,32,33,33,34,34,35,35,36,36,37,37,38,38,39,39,40,40,41,41,42,42,43,43,44,44,45,45,47,47,49,49,50,50],"right_children":[2,4,6,8,10,12,14,16,18,-1,20,22,24,26,28,30,32,-1,34,-1,-1,36,38,40,42,44,46,48,50,52,54,56,58,60,62,64,66,68,70,72,74,76,78,80,82,84,-1,86,-1,88,90,-1,-1,-1,-1,-1,-1,-1,-1,-1,-1,-1,-1,-1,-1,-1,-1,-1,-1,-1,-1,-1,-1,-1,-1,-1,-1,-1,-1,-1,-1,-1,-1,-1,-1,-1,-1,-1,-1,-1,-1],"split_conditions":[1E0,7.1E1,1E0,1.01E1,1.0453E2,1E0,6.910833E1,1.99E1,1.935E1,-2.3358281E-1,1E0,1E0,3E0,6.7083336E1,7.067812E1,1E0,1E0,-2.2640619E-1,1E0,7.678559E-2,-1.06795564E-1,1.003E2,1E0,1E0,9.634091E1,2.30955E3,1E0,1E0,7.41E1,1E0,1E0,2.005E1,1E0,1.7722221E1,4.3E1,9.59E1,1.0055E2,1E0,1E0,1E0,1E0,1E1,1E0,5.672381E1,4.7E1,6E0,-3.4708194E-2,7E0,-4.7697715E-2,7.385E1,5.9305E2,-2.4348176E-1,9.048857E-2,7.394798E-2,-3.8259406E-2,2.905825E-1,1.0576766E-1,2.851203E-1,-1.7343877E-1,-1.4554088E-1,-2.4192635E-2,4.179627E-2,-8.433687E-2,6.0933724E-2,2.4397855E-1,-2.9598555E-1,1.2706749E-2,-2.1191694E-1,-6.6809123E-3,-1.1340664E-1,1.5759559E-1,4.157637E-2,2.9310134E-1,6.060975E-2,-1.1106888E-1,-3.0861333E-2,-2.498202E-1,1.899151E-1,-1.591824E-1,2.2836637E-3,-8.742815E-2,4.6876737E-1,-2.1192081E-1,8.2070075E-2,4.2143875E-1,-7.648224E-2,-4.0967873E-1,-1.615902E-1,5.0860065E-1,1.3705318E-1,-6.2131066E-2],"split_indices":[23,46,17,0,0,26,0,16,16,0,3,37,52,0,0,33,9,0,9,0,0,16,48,6,0,53,31,48,16,32,9,16,26,0,46,16,16,1,28,9,32,46,9,0,46,46,0,46,0,16,53,0,0,0,0,0,0,0,0,0,0,0,0,0,0,0,0,0,0,0,0,0,0,0,0,0,0,0,0,0,0,0,0,0,0,0,0,0,0,0,0],"split_type":[0,0,0,0,0,0,0,0,0,0,0,0,0,0,0,0,0,0,0,0,0,0,0,0,0,0,0,0,0,0,0,0,0,0,0,0,0,0,0,0,0,0,0,0,0,0,0,0,0,0,0,0,0,0,0,0,0,0,0,0,0,0,0,0,0,0,0,0,0,0,0,0,0,0,0,0,0,0,0,0,0,0,0,0,0,0,0,0,0,0,0],"sum_hessian":[7.193789E2,2.2744453E2,4.9193433E2,2.2183748E2,5.60706E0,2.786845E2,2.1324983E2,1.7237303E1,2.0460017E2,3.014111E0,2.592949E0,2.1636844E2,6.2316074E1,1.3884775E2,7.440208E1,1.0940541E1,6.2967606E0,2.4481974E0,2.0215198E2,1.0927325E0,1.5002165E0,1.2595965E2,9.040878E1,4.2144295E1,2.0171782E1,1.3106458E2,7.783185E0,5.67893E0,6.8723145E1,2.768345E0,8.172196E0,3.7971456E0,2.499615E0,9.782021E1,1.04331764E2,7.5166885E1,5.0792763E1,6.952576E1,2.0883028E1,7.055509E0,3.5088783E1,1.21955185E1,7.9762626E0,1.2750293E2,3.5616405E0,6.5589375E0,1.2242471E0,3.7124424E0,1.9664875E0,2.9777882E0,6.574536E1,1.4079971E0,1.3603481E0,4.509617E0,3.6625793E0,1.1723666E0,2.624779E0,1.0263746E0,1.4732404E0,1.224107E1,8.557914E1,7.2651955E1,3.1679817E1,5.7021503E1,1.8145382E1,1.7656953E0,4.902707E1,5.252865E0,6.4272896E1,6.5694575E0,1.431357E1,3.6787975E0,3.3767114E0,1.7578342E1,1.7510443E1,2.4202888E0,9.77523E0,4.7081056E0,3.2681568E0,9.837785E1,2.9125076E1,1.8705815E0,1.6910589E0,1.0722148E0,5.486723E0,1.0211028E0,2.6913395E0,1.6430365E0,1.3347516E0,5.607848E0,6.0137512E1],"tree_param":{"num_deleted":"0","num_feature":"54","num_nodes":"91","size_leaf_vector":"1"}},{"base_weights":[-5.3188736E-3,7.597319E-3,-9.0622984E-2,-2.6695447E-3,5.193678E-1,-2.610288E-1,9.874783E-2,4.3768E-3,-2.227598E-1,7.255936E-1,-4.711352E-2,2.2692135E-1,-3.146912E-1,5.7383126E-1,-9.515363E-2,-2.7540856E-4,4.9322808E-1,-7.132022E-1,8.281877E-2,1.8513985E-1,1.4834064E0,-2.0742066E-1,1.651374E-1,-2.4898563E-1,-3.2327026E-1,-1.4419165E-1,7.6963645E-1,-5.174968E-1,3.903864E-2,4.174058E-3,-2.7664727E-1,7.6351404E-1,-8.407402E-2,-2.692734E-1,-4.290028E-2,-3.282644E-1,7.16451E-1,-1.3524123E-1,5.515963E-1,6.5520966E-1,1.2704398E-2,-4.3581277E-1,-6.9582775E-2,-2.0471534E-1,1.2914687E-1,2.0373344E-1,9.531393E-1,1.6291428E-2,-6.826992E-1,4.208483E-1,-2.2596058E-1,2.1466317E-3,-2.4882434E-1,3.6603847E-1,-3.454186E-2,5.6078237E-2,-2.4798702E-1,2.9296598E-1,9.612767E-2,-9.434069E-3,2.613295E-1,-6.561887E-2,-2.5715476E-1,1.09550215E-1,-8.490401E-2,-5.9862316E-2,1.9771284E-1,4.6071792E-1,1.8498136E-1,-2.5513458E-1,-3.369128E-2,-5.236583E-2,1.8627758E-1,-1.9465943E-1,5.770114E-2],"categories":[],"categories_nodes":[],"categories_segments":[],"categories_sizes":[],"default_left":[0,0,0,0,0,0,0,0,0,0,0,0,0,0,0,0,0,0,0,0,0,0,0,0,0,0,0,0,0,0,0,0,0,0,0,0,0,0,0,0,0,0,0,0,0,0,0,0,0,0,0,0,0,0,0,0,0,0,0,0,0,0,0,0,0,0,0,0,0,0,0,0,0,0,0],"id":17,"left_children":[1,3,5,7,9,11,13,15,17,19,21,-1,23,25,27,29,31,33,35,37,39,-1,-1,41,-1,43,45,47,49,51,-1,53,-1,-1,-1,55,57,-1,59,-1,-1,61,63,-1,-1,65,67,-1,69,71,73,-1,-1,-1,-1,-1,-1,-1,-1,-1,-1,-1,-1,-1,-1,-1,-1,-1,-1,-1,-1,-1,-1,-1,-1],"loss_changes":[7.871892E-1,3.2636735E0,3.0574532E0,9.464646E-1,1.4612896E0,2.9528818E0,4.2205324E0,1.3458787E0,2.8964756E0,3.4182425E0,1.9973584E0,0E0,2.1346726E0,1.9738154E0,1.8889679E0,2.4122896E0,1.3802667E0,6.4666796E-1,3.506937E0,1.7414873E0,3.5532475E0,0E0,0E0,1.4926465E0,0E0,1.4323336E0,9.0331316E-1,7.9473186E-1,2.7209575E0,1.460623E0,0E0,1.9068422E0,0E0,0E0,0E0,2.2865722E0,2.2856426E-1,0E0,8.6821115E-1,0E0,0E0,1.8311749E0,2.3645897E0,0E0,0E0,8.4021235E-1,5.644789E-1,0E0,5.069611E-1,1.4166476E0,2.9499607E0,0E0,0E0,0E0,0E0,0E0,0E0,0E0,0E0,0E0,0E0,0E0,0E0,0E0,0E0,0E0,0E0,0E0,0E0,0E0,0E0,0E0,0E0,0E0,0E0],"parents":[2147483647,0,0,1,1,2,2,3,3,4,4,5,5,6,6,7,7,8,8,9,9,10,10,12,12,13,13,14,14,15,15,16,16,17,17,18,18,19,19,20,20,23,23,25,25,26,26,27,27,28,28,29,29,31,31,35,35,36,36,38,38,41,41,42,42,45,45,46,46,48,48,49,49,50,50],"right_children":[2,4,6,8,10,12,14,16,18,20,22,-1,24,26,28,30,32,34,36,38,40,-1,-1,42,-1,44,46,48,50,52,-1,54,-1,-1,-1,56,58,-1,60,-1,-1,62,64,-1,-1,66,68,-1,70,72,74,-1,-1,-1,-1,-1,-1,-1,-1,-1,-1,-1,-1,-1,-1,-1,-1,-1,-1,-1,-1,-1,-1,-1,-1],"split_conditions":[5.5E1,5.3E1,9.836759E1,5E1,1E0,1.34575E3,1.043E2,5.0002E3,8.405E1,1E0,1E0,2.2692135E-1,9.745E1,1E0,1.0392541E2,4.89635E3,1E0,1E0,1E0,1E0,1.0405E2,-2.0742066E-1,1.651374E-1,5.1246E3,-3.2327026E-1,1E0,1E0,1.048E2,1.065397E2,1.103952E2,-2.7664727E-1,5.1246E3,-8.407402E-2,-2.692734E-1,-4.290028E-2,1E0,1E0,-1.3524123E-1,9.2969734E1,6.5520966E-1,1.2704398E-2,7.321827E1,5.5365E3,-2.0471534E-1,1.2914687E-1,1.0405E2,1E0,1.6291428E-2,1E0,1E0,7.41225E3,2.1466317E-3,-2.4882434E-1,3.6603847E-1,-3.454186E-2,5.6078237E-2,-2.4798702E-1,2.9296598E-1,9.612767E-2,-9.434069E-3,2.613295E-1,-6.561887E-2,-2.5715476E-1,1.09550215E-1,-8.490401E-2,-5.9862316E-2,1.9771284E-1,4.6071792E-1,1.8498136E-1,-2.5513458E-1,-3.369128E-2,-5.236583E-2,1.8627758E-1,-1.9465943E-1,5.770114E-2],"split_indices":[46,46,0,46,40,53,16,53,16,30,19,0,0,23,0,53,26,8,6,23,16,0,0,53,0,28,43,16,0,0,0,53,0,0,0,2,23,0,0,0,0,0,53,0,0,16,4,0,20,4,53,0,0,0,0,0,0,0,0,0,0,0,0,0,0,0,0,0,0,0,0,0,0,0,0],"split_type":[0,0,0,0,0,0,0,0,0,0,0,0,0,0,0,0,0,0,0,0,0,0,0,0,0,0,0,0,0,0,0,0,0,0,0,0,0,0,0,0,0,0,0,0,0,0,0,0,0,0,0,0,0,0,0,0,0,0,0,0,0,0,0,0,0,0,0,0,0,0,0,0,0,0,0],"sum_hessian":[7.128297E2,6.1988214E2,9.294756E1,6.086662E2,1.1215948E1,4.8724396E1,4.422317E1,5.907335E2,1.7932636E1,8.016638E0,3.1993105E0,1.7850187E0,4.6939377E1,1.2249914E1,3.1973257E1,5.861548E2,4.578771E0,6.37195E0,1.1560686E1,5.4057183E0,2.6109192E0,1.4639217E0,1.7353889E0,4.4438335E1,2.5010402E0,2.6812599E0,9.568655E0,7.020684E0,2.4952574E1,5.8432996E2,1.8247976E0,3.4026234E0,1.1761478E0,4.3811526E0,1.9907973E0,7.303991E0,4.2566957E0,1.892071E0,3.513647E0,1.4098781E0,1.2010412E0,2.1068604E1,2.3369732E1,1.2878066E0,1.3934532E0,2.8597472E0,6.7089076E0,1.7241856E0,5.2964983E0,9.982182E0,1.4970393E1,5.832354E2,1.0945613E0,1.9833122E0,1.4193112E0,3.8986115E0,3.4053793E0,1.6844773E0,2.5722184E0,1.5629935E0,1.9506537E0,1.4907553E1,6.16105E0,7.4610033E0,1.590873E1,1.8144274E0,1.0453199E0,1.1517396E0,5.557168E0,3.7134237E0,1.5830747E0,2.5427837E0,7.4393973E0,7.1701145E0,7.800278E0],"tree_param":{"num_deleted":"0","num_feature":"54","num_nodes":"75","size_leaf_vector":"1"}},{"base_weights":[-4.728175E-3,-2.5988475E-4,-2.655991E-1,1.7444106E-3,-2.0732681E-1,-4.428186E-1,-1.766487E-2,-2.983108E-3,5.5915624E-1,4.1516133E-2,-5.796696E-1,1.5690982E-1,-2.3982665E-1,-6.1744446E-4,-2.0810327E-1,2.8317186E-1,3.1151436E-2,-6.4889103E-1,-5.1184766E-2,-4.492952E-1,